{"learner":{"attributes":{},"feature_names":[],"feature_types":[],"gradient_booster":{"model":{"gbtree_model_param":{"num_parallel_tree":"1","num_trees":"300"},"iteration_indptr":[0,30,60,90,120,150,180,210,240,270,300],"tree_info":[0,1,2,3,4,5,6,7,8,9,10,11,12,13,14,15,16,17,18,19,20,21,22,23,24,25,26,27,28,29,0,1,2,3,4,5,6,7,8,9,10,11,12,13,14,15,16,17,18,19,20,21,22,23,24,25,26,27,28,29,0,1,2,3,4,5,6,7,8,9,10,11,12,13,14,15,16,17,18,19,20,21,22,23,24,25,26,27,28,29,0,1,2,3,4,5,6,7,8,9,10,11,12,13,14,15,16,17,18,19,20,21,22,23,24,25,26,27,28,29,0,1,2,3,4,5,6,7,8,9,10,11,12,13,14,15,16,17,18,19,20,21,22,23,24,25,26,27,28,29,0,1,2,3,4,5,6,7,8,9,10,11,12,13,14,15,16,17,18,19,20,21,22,23,24,25,26,27,28,29,0,1,2,3,4,5,6,7,8,9,10,11,12,13,14,15,16,17,18,19,20,21,22,23,24,25,26,27,28,29,0,1,2,3,4,5,6,7,8,9,10,11,12,13,14,15,16,17,18,19,20,21,22,23,24,25,26,27,28,29,0,1,2,3,4,5,6,7,8,9,10,11,12,13,14,15,16,17,18,19,20,21,22,23,24,25,26,27,28,29,0,1,2,3,4,5,6,7,8,9,10,11,12,13,14,15,16,17,18,19,20,21,22,23,24,25,26,27,28,29],"trees":[{"base_weights":[-5.2970573E-2,5.8577858E-2,-1.3442479E-1,2.567851E-2,-1.6394576E-2,-2.0814788E-1,3.903986E-2,-1.4821911E-2,1.0100122E-2,-9.801698E-3,-2.5930865E-2,2.1611525E-2,-1.9206433E-2],"categories":[],"categories_nodes":[],"categories_segments":[],"categories_sizes":[],"default_left":[0,0,0,0,0,0,0,0,0,0,0,0,0],"id":0,"left_children":[1,3,5,-1,7,9,11,-1,-1,-1,-1,-1,-1],"loss_changes":[3.80404E-1,2.7169135E-1,3.1504652E-1,0E0,2.3162936E-1,7.036787E-2,3.688909E-1,0E0,0E0,0E0,0E0,0E0,0E0],"parents":[2147483647,0,0,1,1,2,2,4,4,5,5,6,6],"right_children":[2,4,6,-1,8,10,12,-1,-1,-1,-1,-1,-1],"split_conditions":[1E0,1E0,1E0,2.567851E-2,1E0,1E0,1E0,-1.4821911E-2,1.0100122E-2,-9.801698E-3,-2.5930865E-2,2.1611525E-2,-1.9206433E-2],"split_indices":[6,18,29,0,24,23,19,0,0,0,0,0,0],"split_type":[0,0,0,0,0,0,0,0,0,0,0,0,0],"sum_hessian":[4E1,1.7E1,2.3E1,4E0,1.3E1,1.6E1,7E0,6E0,7E0,6E0,1E1,4E0,3E0],"tree_param":{"num_deleted":"0","num_feature":"30","num_nodes":"13","size_leaf_vector":"1"}},{"base_weights":[-5.16305E-2,-1.2432514E-1,3.9085668E-2,-3.1434953E-2,-3.3215487E-1,-1.1182011E-1,1.17336035E-1,-1.2138187E-2,6.2004733E-3,-3.629847E-2,-7.3588E-3,-1.72391E-2,1.2580256E-2,3.502696E-3,2.0752547E-2],"categories":[],"categories_nodes":[],"categories_segments":[],"categories_sizes":[],"default_left":[0,0,0,0,0,0,0,0,0,0,0,0,0,0,0],"id":1,"left_children":[1,3,5,7,9,11,13,-1,-1,-1,-1,-1,-1,-1,-1],"loss_changes":[2.7523705E-1,4.3358162E-1,2.3748073E-1,1.5040463E-1,2.9089749E-2,1.2243832E-1,8.9235306E-2,0E0,0E0,0E0,0E0,0E0,0E0,0E0,0E0],"parents":[2147483647,0,0,1,1,2,2,3,3,4,4,5,5,6,6],"right_children":[2,4,6,8,10,12,14,-1,-1,-1,-1,-1,-1,-1,-1],"split_conditions":[1E0,1E0,1E0,1E0,4.1E1,1E0,1E0,-1.2138187E-2,6.2004733E-3,-3.629847E-2,-7.3588E-3,-1.72391E-2,1.2580256E-2,3.502696E-3,2.0752547E-2],"split_indices":[27,16,10,17,0,25,6,0,0,0,0,0,0,0,0],"split_type":[0,0,0,0,0,0,0,0,0,0,0,0,0,0,0],"sum_hessian":[4E1,2.2E1,1.8E1,1.6E1,6E0,6E0,1.2E1,8E0,8E0,5E0,1E0,5E0,1E0,7E0,5E0],"tree_param":{"num_deleted":"0","num_feature":"30","num_nodes":"15","size_leaf_vector":"1"}},{"base_weights":[3.5497747E-2,-8.6719826E-2,1.3491671E-1,-2.0146622E-1,1.5047208E-2,4.983112E-2,3.2227933E-2,-2.6085455E-2,1.3682025E-2,-1.7596459E-2,2.0355113E-2,-1.1321726E-2,1.7528672E-2],"categories":[],"categories_nodes":[],"categories_segments":[],"categories_sizes":[],"default_left":[0,0,0,0,0,0,0,0,0,0,0,0,0],"id":2,"left_children":[1,3,5,7,9,11,-1,-1,-1,-1,-1,-1,-1],"loss_changes":[5.098805E-1,2.249021E-1,3.506032E-1,2.1650264E-1,4.3188897E-1,3.6758614E-1,0E0,0E0,0E0,0E0,0E0,0E0,0E0],"parents":[2147483647,0,0,1,1,2,2,3,3,4,4,5,5],"right_children":[2,4,6,8,10,12,-1,-1,-1,-1,-1,-1,-1],"split_conditions":[1E0,1E0,1E0,4.6E1,2.2E1,1E0,3.2227933E-2,-2.6085455E-2,1.3682025E-2,-1.7596459E-2,2.0355113E-2,-1.1321726E-2,1.7528672E-2],"split_indices":[13,22,22,0,0,2,0,0,0,0,0,0,0],"split_type":[0,0,0,0,0,0,0,0,0,0,0,0,0],"sum_hessian":[4E1,1.8E1,2.2E1,8E0,1E1,1.6E1,6E0,7E0,1E0,5E0,5E0,7E0,9E0],"tree_param":{"num_deleted":"0","num_feature":"30","num_nodes":"13","size_leaf_vector":"1"}},{"base_weights":[-3.826875E-2,1.945134E-1,-6.869151E-2,2.3043117E-2,2.5421127E-3,-2.7692434E-1,-1.945533E-2,-3.5890706E-2,1.0748588E-2,-1.4721771E-2,6.8984996E-3],"categories":[],"categories_nodes":[],"categories_segments":[],"categories_sizes":[],"default_left":[0,0,0,0,0,0,0,0,0,0,0],"id":3,"left_children":[1,3,5,-1,-1,7,9,-1,-1,-1,-1],"loss_changes":[3.0371827E-1,2.4509266E-2,3.739581E-1,0E0,0E0,2.591824E-1,3.6043552E-1,0E0,0E0,0E0,0E0],"parents":[2147483647,0,0,1,1,2,2,5,5,6,6],"right_children":[2,4,6,-1,-1,8,10,-1,-1,-1,-1],"split_conditions":[4E0,1E0,1E1,2.3043117E-2,2.5421127E-3,1E0,1E0,-3.5890706E-2,1.0748588E-2,-1.4721771E-2,6.8984996E-3],"split_indices":[0,14,0,0,0,7,18,0,0,0,0],"split_type":[0,0,0,0,0,0,0,0,0,0,0],"sum_hessian":[4E1,4E0,3.6E1,3E0,1E0,6E0,3E1,5E0,1E0,1.2E1,1.8E1],"tree_param":{"num_deleted":"0","num_feature":"30","num_nodes":"11","size_leaf_vector":"1"}},{"base_weights":[4.8381772E-2,-5.4028723E-2,1.5861423E-1,-1.2031976E-1,3.7552502E-2,-4.9022543E-3,1.7212261E-1,2.74554E-3,-1.8904822E-2,2.4533695E-2,-8.654612E-3,2.5231084E-2,9.086656E-3],"categories":[],"categories_nodes":[],"categories_segments":[],"categories_sizes":[],"default_left":[0,0,0,0,0,0,0,0,0,0,0,0,0],"id":4,"left_children":[1,3,5,7,9,-1,11,-1,-1,-1,-1,-1,-1],"loss_changes":[4.714171E-1,1.3808063E-1,6.4534605E-2,1.3722306E-1,2.790906E-1,0E0,1.0087317E-1,0E0,0E0,0E0,0E0,0E0,0E0],"parents":[2147483647,0,0,1,1,2,2,3,3,4,4,6,6],"right_children":[2,4,6,8,10,-1,12,-1,-1,-1,-1,-1,-1],"split_conditions":[1E0,1E0,1E0,1E0,1.2E1,-4.9022543E-3,1E0,2.74554E-3,-1.8904822E-2,2.4533695E-2,-8.654612E-3,2.5231084E-2,9.086656E-3],"split_indices":[1,15,0,21,0,0,5,0,0,0,0,0,0],"split_type":[0,0,0,0,0,0,0,0,0,0,0,0,0],"sum_hessian":[4E1,2.1E1,1.9E1,1.2E1,9E0,1E0,1.8E1,4E0,8E0,3E0,6E0,8E0,1E1],"tree_param":{"num_deleted":"0","num_feature":"30","num_nodes":"13","size_leaf_vector":"1"}},{"base_weights":[-4.6931025E-2,5.1264822E-2,-1.3406675E-1,-4.195014E-2,2.3037119E-1,-2.3374395E-2,-2.2436251E-1,7.557643E-3,-2.6861325E-2,3.126522E-2,1.6445796E-3,7.356342E-3,-2.1140642E-2,-2.8737335E-2,-7.867268E-3],"categories":[],"categories_nodes":[],"categories_segments":[],"categories_sizes":[],"default_left":[0,0,0,0,0,0,0,0,0,0,0,0,0,0,0],"id":5,"left_children":[1,3,5,7,9,11,13,-1,-1,-1,-1,-1,-1,-1,-1],"loss_changes":[3.5768396E-1,3.4357196E-1,2.1464676E-1,3.9324597E-1,1.1807218E-1,2.1605334E-1,8.755201E-2,0E0,0E0,0E0,0E0,0E0,0E0,0E0,0E0],"parents":[2147483647,0,0,1,1,2,2,3,3,4,4,5,5,6,6],"right_children":[2,4,6,8,10,12,14,-1,-1,-1,-1,-1,-1,-1,-1],"split_conditions":[1E0,1E0,1E0,1E0,1E0,1E0,1E0,7.557643E-3,-2.6861325E-2,3.126522E-2,1.6445796E-3,7.356342E-3,-2.1140642E-2,-2.8737335E-2,-7.867268E-3],"split_indices":[15,29,21,19,5,27,1,0,0,0,0,0,0,0,0],"split_type":[0,0,0,0,0,0,0,0,0,0,0,0,0,0,0],"sum_hessian":[4E1,1.9E1,2.1E1,1.3E1,6E0,1E1,1.1E1,9E0,4E0,4E0,2E0,7E0,3E0,7E0,4E0],"tree_param":{"num_deleted":"0","num_feature":"30","num_nodes":"15","size_leaf_vector":"1"}},{"base_weights":[3.7933934E-2,-5.212877E-2,1.1068426E-1,9.9120796E-2,-2.3119727E-1,9.484672E-3,2.2022156E-1,1.4895271E-2,-1.9959917E-2,4.5153275E-3,-2.7138526E-2,2.1124274E-2,-7.2167017E-3,9.417164E-3,3.5264716E-2],"categories":[],"categories_nodes":[],"categories_segments":[],"categories_sizes":[],"default_left":[0,0,0,0,0,0,0,0,0,0,0,0,0,0,0],"id":6,"left_children":[1,3,5,7,9,11,13,-1,-1,-1,-1,-1,-1,-1,-1],"loss_changes":[2.7440557E-1,5.37513E-1,2.5286928E-1,1.9347447E-1,1.1220765E-1,2.2940528E-1,1.5040517E-1,0E0,0E0,0E0,0E0,0E0,0E0,0E0,0E0],"parents":[2147483647,0,0,1,1,2,2,3,3,4,4,5,5,6,6],"right_children":[2,4,6,8,10,12,14,-1,-1,-1,-1,-1,-1,-1,-1],"split_conditions":[1E0,1E0,3.4E1,3.6E1,1E0,1E0,1E0,1.4895271E-2,-1.9959917E-2,4.5153275E-3,-2.7138526E-2,2.1124274E-2,-7.2167017E-3,9.417164E-3,3.5264716E-2],"split_indices":[28,12,0,0,23,17,13,0,0,0,0,0,0,0,0],"split_type":[0,0,0,0,0,0,0,0,0,0,0,0,0,0,0],"sum_hessian":[4E1,1.8E1,2.2E1,1E1,8E0,1.2E1,1E1,9E0,1E0,1E0,7E0,3E0,9E0,6E0,4E0],"tree_param":{"num_deleted":"0","num_feature":"30","num_nodes":"15","size_leaf_vector":"1"}},{"base_weights":[3.310789E-2,7.828103E-2,-2.4344891E-1,1.7064491E-1,4.1808784E-3,-2.8274251E-2,-2.3490444E-3,6.861806E-3,2.9201973E-2,8.2991365E-3,-1.6529601E-2],"categories":[],"categories_nodes":[],"categories_segments":[],"categories_sizes":[],"default_left":[0,0,0,0,0,0,0,0,0,0,0],"id":7,"left_children":[1,3,5,7,9,-1,-1,-1,-1,-1,-1],"loss_changes":[5.312679E-1,2.4567696E-1,4.5216054E-2,1.78098E-1,2.942058E-1,0E0,0E0,0E0,0E0,0E0,0E0],"parents":[2147483647,0,0,1,1,2,2,3,3,4,4],"right_children":[2,4,6,8,10,-1,-1,-1,-1,-1,-1],"split_conditions":[4.3E1,1E0,1E0,1E0,1E0,-2.8274251E-2,-2.3490444E-3,6.861806E-3,2.9201973E-2,8.2991365E-3,-1.6529601E-2],"split_indices":[0,6,26,29,7,0,0,0,0,0,0],"split_type":[0,0,0,0,0,0,0,0,0,0,0],"sum_hessian":[4E1,3.5E1,5E0,1.5E1,2E1,4E0,1E0,9E0,6E0,1.4E1,6E0],"tree_param":{"num_deleted":"0","num_feature":"30","num_nodes":"11","size_leaf_vector":"1"}},{"base_weights":[1.0458516E-1,2.376931E-1,1.8650077E-2,2.7395037E-1,-1.53083E-2,-5.4598577E-2,2.71912E-1,8.82451E-3,3.334573E-2,-1.3252852E-2,4.43772E-3,3.1205568E-2,3.5596893E-3],"categories":[],"categories_nodes":[],"categories_segments":[],"categories_sizes":[],"default_left":[0,0,0,0,0,0,0,0,0,0,0,0,0],"id":8,"left_children":[1,3,5,7,-1,9,11,-1,-1,-1,-1,-1,-1],"loss_changes":[4.645513E-1,2.6863283E-1,4.971745E-1,1.3633513E-1,0E0,1.6785794E-1,4.5811117E-2,0E0,0E0,0E0,0E0,0E0,0E0],"parents":[2147483647,0,0,1,1,2,2,3,3,5,5,6,6],"right_children":[2,4,6,8,-1,10,12,-1,-1,-1,-1,-1,-1],"split_conditions":[1E0,4.6E1,4.1E1,1E1,-1.53083E-2,1E0,4.9E1,8.82451E-3,3.334573E-2,-1.3252852E-2,4.43772E-3,3.1205568E-2,3.5596893E-3],"split_indices":[10,0,0,0,0,11,0,0,0,0,0,0,0],"split_type":[0,0,0,0,0,0,0,0,0,0,0,0,0],"sum_hessian":[4E1,1.5E1,2.5E1,1.4E1,1E0,2E1,5E0,4E0,1E1,1.1E1,9E0,4E0,1E0],"tree_param":{"num_deleted":"0","num_feature":"30","num_nodes":"13","size_leaf_vector":"1"}},{"base_weights":[1.1419414E-3,7.861315E-2,-9.269909E-2,1.8541777E-1,-1.7807165E-2,-1.164103E-2,-2.2999276E-1,2.114892E-3,2.195721E-2,-1.7408865E-2,1.0162984E-2,1.13453865E-2,-7.984474E-3,-1.0086396E-2,-2.6147151E-2],"categories":[],"categories_nodes":[],"categories_segments":[],"categories_sizes":[],"default_left":[0,0,0,0,0,0,0,0,0,0,0,0,0,0,0],"id":9,"left_children":[1,3,5,7,9,11,13,-1,-1,-1,-1,-1,-1,-1,-1],"loss_changes":[3.0535644E-1,2.4015887E-1,2.0876905E-1,5.7071656E-2,2.6034787E-1,1.1997387E-1,2.0806491E-3,0E0,0E0,0E0,0E0,0E0,0E0,0E0,0E0],"parents":[2147483647,0,0,1,1,2,2,3,3,4,4,5,5,6,6],"right_children":[2,4,6,8,10,12,14,-1,-1,-1,-1,-1,-1,-1,-1],"split_conditions":[1E0,1E0,1E0,4E0,1E0,1E0,7E0,2.114892E-3,2.195721E-2,-1.7408865E-2,1.0162984E-2,1.13453865E-2,-7.984474E-3,-1.0086396E-2,-2.6147151E-2],"split_indices":[12,28,11,0,18,10,0,0,0,0,0,0,0,0,0],"split_type":[0,0,0,0,0,0,0,0,0,0,0,0,0,0,0],"sum_hessian":[4E1,2.2E1,1.8E1,1E1,1.2E1,1.2E1,6E0,2E0,8E0,5E0,7E0,4E0,8E0,2E0,4E0],"tree_param":{"num_deleted":"0","num_feature":"30","num_nodes":"15","size_leaf_vector":"1"}},{"base_weights":[-8.573479E-2,-1.7751434E-1,4.1400988E-2,-7.596676E-2,-2.7273136E-1,-9.904777E-2,1.3978182E-1,1.1226508E-2,-2.076448E-2,-3.365813E-2,-1.5278463E-2,-1.5974825E-2,1.6292779E-2,2.7086033E-2,-1.5732063E-2],"categories":[],"categories_nodes":[],"categories_segments":[],"categories_sizes":[],"default_left":[0,0,0,0,0,0,0,0,0,0,0,0,0,0,0],"id":10,"left_children":[1,3,5,7,9,11,13,-1,-1,-1,-1,-1,-1,-1,-1],"loss_changes":[4.8575634E-1,2.1133894E-1,2.6255944E-1,3.455292E-1,4.0478528E-2,1.5324378E-1,4.709931E-1,0E0,0E0,0E0,0E0,0E0,0E0,0E0,0E0],"parents":[2147483647,0,0,1,1,2,2,3,3,4,4,5,5,6,6],"right_children":[2,4,6,8,10,12,14,-1,-1,-1,-1,-1,-1,-1,-1],"split_conditions":[1E0,1E0,1E0,1E0,1E0,4.4E1,1E0,1.1226508E-2,-2.076448E-2,-3.365813E-2,-1.5278463E-2,-1.5974825E-2,1.6292779E-2,2.7086033E-2,-1.5732063E-2],"split_indices":[14,26,23,15,4,0,27,0,0,0,0,0,0,0,0],"split_type":[0,0,0,0,0,0,0,0,0,0,0,0,0,0,0],"sum_hessian":[4E1,2.3E1,1.7E1,1.2E1,1.1E1,7E0,1E1,5E0,7E0,6E0,5E0,6E0,1E0,7E0,3E0],"tree_param":{"num_deleted":"0","num_feature":"30","num_nodes":"15","size_leaf_vector":"1"}},{"base_weights":[-5.9973385E-2,-1.6063103E-1,2.578612E-2,-2.3086372E-1,-3.520311E-2,-9.245826E-2,1.6318528E-1,-1.5950626E-2,-2.988629E-2,-1.6733615E-2,2.407973E-2,3.457181E-3,-2.0628002E-2,1.7993487E-2,-2.1552593E-4],"categories":[],"categories_nodes":[],"categories_segments":[],"categories_sizes":[],"default_left":[0,0,0,0,0,0,0,0,0,0,0,0,0,0,0],"id":11,"left_children":[1,3,5,7,9,11,13,-1,-1,-1,-1,-1,-1,-1,-1],"loss_changes":[3.5806838E-1,1.5924662E-1,3.8876146E-1,1.0556459E-2,3.320442E-1,1.9509566E-1,3.0851066E-2,0E0,0E0,0E0,0E0,0E0,0E0,0E0,0E0],"parents":[2147483647,0,0,1,1,2,2,3,3,4,4,5,5,6,6],"right_children":[2,4,6,8,10,12,14,-1,-1,-1,-1,-1,-1,-1,-1],"split_conditions":[1E0,1E0,1E0,1E0,1E0,1E0,4.9E1,-1.5950626E-2,-2.988629E-2,-1.6733615E-2,2.407973E-2,3.457181E-3,-2.0628002E-2,1.7993487E-2,-2.1552593E-4],"split_indices":[28,9,4,11,25,10,0,0,0,0,0,0,0,0,0],"split_type":[0,0,0,0,0,0,0,0,0,0,0,0,0,0,0],"sum_hessian":[4E1,1.8E1,2.2E1,1.1E1,7E0,1.2E1,1E1,7E0,4E0,5E0,2E0,6E0,6E0,9E0,1E0],"tree_param":{"num_deleted":"0","num_feature":"30","num_nodes":"15","size_leaf_vector":"1"}},{"base_weights":[2.3435857E-2,1.0377091E-1,-8.497954E-2,1.7135762E-1,-2.7913336E-2,-1.5676276E-1,8.4714025E-2,-3.0951314E-3,2.2042518E-2,1.373003E-2,-1.875443E-2,5.8464037E-4,-2.0613017E-2,1.6397104E-2,-4.919999E-3],"categories":[],"categories_nodes":[],"categories_segments":[],"categories_sizes":[],"default_left":[0,0,0,0,0,0,0,0,0,0,0,0,0,0,0],"id":12,"left_children":[1,3,5,7,9,11,13,-1,-1,-1,-1,-1,-1,-1,-1],"loss_changes":[3.6591026E-1,2.183857E-1,2.3254073E-1,1.6565132E-1,2.631088E-1,1.0556382E-1,7.174911E-2,0E0,0E0,0E0,0E0,0E0,0E0,0E0,0E0],"parents":[2147483647,0,0,1,1,2,2,3,3,4,4,5,5,6,6],"right_children":[2,4,6,8,10,12,14,-1,-1,-1,-1,-1,-1,-1,-1],"split_conditions":[1E0,3.3E1,1E0,4E0,1E0,1.4E1,1E0,-3.0951314E-3,2.2042518E-2,1.373003E-2,-1.875443E-2,5.8464037E-4,-2.0613017E-2,1.6397104E-2,-4.919999E-3],"split_indices":[14,0,8,0,9,0,23,0,0,0,0,0,0,0,0],"split_type":[0,0,0,0,0,0,0,0,0,0,0,0,0,0,0],"sum_hessian":[4E1,2.3E1,1.7E1,1.5E1,8E0,1.2E1,5E0,3E0,1.2E1,4E0,4E0,3E0,9E0,3E0,2E0],"tree_param":{"num_deleted":"0","num_feature":"30","num_nodes":"15","size_leaf_vector":"1"}},{"base_weights":[6.602149E-3,8.935343E-2,-1.2828131E-1,1.990269E-1,-1.8868612E-2,-5.024796E-2,-2.4996223E-2,3.3157617E-2,3.8045205E-3,9.353786E-3,-1.148657E-2,5.1679914E-3,-1.828974E-2],"categories":[],"categories_nodes":[],"categories_segments":[],"categories_sizes":[],"default_left":[0,0,0,0,0,0,0,0,0,0,0,0,0],"id":13,"left_children":[1,3,5,7,9,11,-1,-1,-1,-1,-1,-1,-1],"loss_changes":[4.6909526E-1,3.1235155E-1,1.393626E-1,2.6477927E-1,1.61814E-1,1.5817955E-1,0E0,0E0,0E0,0E0,0E0,0E0,0E0],"parents":[2147483647,0,0,1,1,2,2,3,3,4,4,5,5],"right_children":[2,4,6,8,10,12,-1,-1,-1,-1,-1,-1,-1],"split_conditions":[1E0,1E0,1E0,1E0,1E0,1E0,-2.4996223E-2,3.3157617E-2,3.8045205E-3,9.353786E-3,-1.148657E-2,5.1679914E-3,-1.828974E-2],"split_indices":[8,28,7,17,18,14,0,0,0,0,0,0,0],"split_type":[0,0,0,0,0,0,0,0,0,0,0,0,0],"sum_hessian":[4E1,2.5E1,1.5E1,1.2E1,1.3E1,1E1,5E0,6E0,6E0,6E0,7E0,6E0,4E0],"tree_param":{"num_deleted":"0","num_feature":"30","num_nodes":"13","size_leaf_vector":"1"}},{"base_weights":[2.7397232E-2,1.08822815E-1,-5.533298E-2,2.1597125E-2,2.801889E-1,-1.6442272E-1,8.1108004E-2,1.1042226E-2,-9.569193E-3,5.461316E-3,3.0868266E-2,-2.5919532E-2,-2.6450872E-3,2.3767134E-2,-6.2879436E-3],"categories":[],"categories_nodes":[],"categories_segments":[],"categories_sizes":[],"default_left":[0,0,0,0,0,0,0,0,0,0,0,0,0,0,0],"id":14,"left_children":[1,3,5,7,9,11,13,-1,-1,-1,-1,-1,-1,-1,-1],"loss_changes":[2.8221208E-1,3.078467E-1,3.2590654E-1,1.6683975E-1,2.8134346E-2,1.500555E-1,2.4037617E-1,0E0,0E0,0E0,0E0,0E0,0E0,0E0,0E0],"parents":[2147483647,0,0,1,1,2,2,3,3,4,4,5,5,6,6],"right_children":[2,4,6,8,10,12,14,-1,-1,-1,-1,-1,-1,-1,-1],"split_conditions":[1E0,1E0,1E0,1E0,4E0,2.2E1,1E0,1.1042226E-2,-9.569193E-3,5.461316E-3,3.0868266E-2,-2.5919532E-2,-2.6450872E-3,2.3767134E-2,-6.2879436E-3],"split_indices":[3,29,24,17,0,0,23,0,0,0,0,0,0,0,0],"split_type":[0,0,0,0,0,0,0,0,0,0,0,0,0,0,0],"sum_hessian":[4E1,2E1,2E1,1.4E1,6E0,1.1E1,9E0,8E0,6E0,1E0,5E0,6E0,5E0,4E0,5E0],"tree_param":{"num_deleted":"0","num_feature":"30","num_nodes":"15","size_leaf_vector":"1"}},{"base_weights":[5.641889E-2,1.414717E-1,-6.0119238E-2,2.3596194E-1,2.7317947E-2,-1.9967028E-1,7.1488634E-2,3.4935237E-3,3.2142546E-2,-1.7482769E-2,1.5024423E-2,-2.7570844E-2,-8.369808E-3,1.8431725E-2,-1.4383361E-2],"categories":[],"categories_nodes":[],"categories_segments":[],"categories_sizes":[],"default_left":[0,0,0,0,0,0,0,0,0,0,0,0,0,0,0],"id":15,"left_children":[1,3,5,7,9,11,13,-1,-1,-1,-1,-1,-1,-1,-1],"loss_changes":[4.1489288E-1,2.52428E-1,3.4486246E-1,2.1211678E-1,3.2445496E-1,5.628854E-2,2.6945612E-1,0E0,0E0,0E0,0E0,0E0,0E0,0E0,0E0],"parents":[2147483647,0,0,1,1,2,2,3,3,4,4,5,5,6,6],"right_children":[2,4,6,8,10,12,14,-1,-1,-1,-1,-1,-1,-1,-1],"split_conditions":[1E0,1E0,1E0,1E0,1E0,1E0,1E0,3.4935237E-3,3.2142546E-2,-1.7482769E-2,1.5024423E-2,-2.7570844E-2,-8.369808E-3,1.8431725E-2,-1.4383361E-2],"split_indices":[2,14,10,27,9,12,11,0,0,0,0,0,0,0,0],"split_type":[0,0,0,0,0,0,0,0,0,0,0,0,0,0,0],"sum_hessian":[4E1,2.3E1,1.7E1,1.2E1,1.1E1,8E0,9E0,4E0,8E0,4E0,7E0,4E0,4E0,6E0,3E0],"tree_param":{"num_deleted":"0","num_feature":"30","num_nodes":"15","size_leaf_vector":"1"}},{"base_weights":[2.7358248E-3,2.0892955E-2,-1.7044088E-2,-5.7930436E-2,9.4730526E-2,5.323046E-3,-1.6329829E-2,1.0711885E-3,2.194195E-2],"categories":[],"categories_nodes":[],"categories_segments":[],"categories_sizes":[],"default_left":[0,0,0,0,0,0,0,0,0],"id":16,"left_children":[1,3,-1,5,7,-1,-1,-1,-1],"loss_changes":[1.3248107E-1,2.2665264E-1,0E0,2.3123534E-1,2.0717356E-1,0E0,0E0,0E0,0E0],"parents":[2147483647,0,0,1,1,3,3,4,4],"right_children":[2,4,-1,6,8,-1,-1,-1,-1],"split_conditions":[4.6E1,1E0,-1.7044088E-2,1E0,1E0,5.323046E-3,-1.6329829E-2,1.0711885E-3,2.194195E-2],"split_indices":[0,28,0,22,29,0,0,0,0],"split_type":[0,0,0,0,0,0,0,0,0],"sum_hessian":[4E1,3.7E1,3E0,1.8E1,1.9E1,9E0,9E0,1.2E1,7E0],"tree_param":{"num_deleted":"0","num_feature":"30","num_nodes":"9","size_leaf_vector":"1"}},{"base_weights":[2.2727855E-2,8.670257E-2,-8.2651556E-2,1.9485284E-1,-5.5710487E-2,1.2012365E-1,-1.8574242E-1,7.089086E-3,2.6961742E-2,7.972545E-3,-2.04434E-2,1.9161118E-2,-1.18657E-2,-2.104965E-2,3.0899122E-3],"categories":[],"categories_nodes":[],"categories_segments":[],"categories_sizes":[],"default_left":[0,0,0,0,0,0,0,0,0,0,0,0,0,0,0],"id":17,"left_children":[1,3,5,7,9,11,13,-1,-1,-1,-1,-1,-1,-1,-1],"loss_changes":[2.835724E-1,4.1130763E-1,3.567804E-1,1.1990607E-1,2.5800872E-1,1.2515503E-1,6.549451E-2,0E0,0E0,0E0,0E0,0E0,0E0,0E0,0E0],"parents":[2147483647,0,0,1,1,2,2,3,3,4,4,5,5,6,6],"right_children":[2,4,6,8,10,12,14,-1,-1,-1,-1,-1,-1,-1,-1],"split_conditions":[1E0,1E0,1E0,9E0,2.9E1,1E0,4.2E1,7.089086E-3,2.6961742E-2,7.972545E-3,-2.04434E-2,1.9161118E-2,-1.18657E-2,-2.104965E-2,3.0899122E-3],"split_indices":[7,20,10,0,0,2,0,0,0,0,0,0,0,0,0],"split_type":[0,0,0,0,0,0,0,0,0,0,0,0,0,0,0],"sum_hessian":[4E1,2.5E1,1.5E1,1.4E1,1.1E1,5E0,1E1,6E0,8E0,6E0,5E0,4E0,1E0,9E0,1E0],"tree_param":{"num_deleted":"0","num_feature":"30","num_nodes":"15","size_leaf_vector":"1"}},{"base_weights":[-3.9806455E-2,-1.21418975E-1,5.195764E-2,3.4061344E-3,-2.2572374E-1,-9.920617E-2,2.4773632E-1,1.824227E-2,-8.652791E-3,-1.3000237E-2,-2.755244E-2,1.0881166E-2,-1.8063564E-2,3.2553036E-2,-1.6361842E-3],"categories":[],"categories_nodes":[],"categories_segments":[],"categories_sizes":[],"default_left":[0,0,0,0,0,0,0,0,0,0,0,0,0,0,0],"id":18,"left_children":[1,3,5,7,9,11,13,-1,-1,-1,-1,-1,-1,-1,-1],"loss_changes":[3.133617E-1,2.872056E-1,6.1647004E-1,1.9288117E-1,2.1385014E-2,2.2292066E-1,1.9023353E-1,0E0,0E0,0E0,0E0,0E0,0E0,0E0,0E0],"parents":[2147483647,0,0,1,1,2,2,3,3,4,4,5,5,6,6],"right_children":[2,4,6,8,10,12,14,-1,-1,-1,-1,-1,-1,-1,-1],"split_conditions":[1E0,1E0,1E0,1E0,1E0,1.8E1,3.5E1,1.824227E-2,-8.652791E-3,-1.3000237E-2,-2.755244E-2,1.0881166E-2,-1.8063564E-2,3.2553036E-2,-1.6361842E-3],"split_indices":[26,4,7,13,15,0,0,0,0,0,0,0,0,0,0],"split_type":[0,0,0,0,0,0,0,0,0,0,0,0,0,0,0],"sum_hessian":[4E1,2.1E1,1.9E1,1E1,1.1E1,1.1E1,8E0,3E0,7E0,5E0,6E0,3E0,8E0,6E0,2E0],"tree_param":{"num_deleted":"0","num_feature":"30","num_nodes":"15","size_leaf_vector":"1"}},{"base_weights":[3.0771365E-2,-8.113635E-2,1.3110696E-1,-1.5182891E-1,7.183967E-2,2.400704E-2,2.3602441E-1,-2.8828785E-2,2.5813996E-3,-1.5825316E-3,1.4154473E-2,1.5177786E-2,-1.2906009E-2,9.916707E-3,3.0006189E-2],"categories":[],"categories_nodes":[],"categories_segments":[],"categories_sizes":[],"default_left":[0,0,0,0,0,0,0,0,0,0,0,0,0,0,0],"id":19,"left_children":[1,3,5,7,9,11,13,-1,-1,-1,-1,-1,-1,-1,-1],"loss_changes":[4.7099897E-1,2.2719264E-1,2.4154001E-1,3.4681532E-1,4.5014847E-2,2.5427863E-1,6.664777E-2,0E0,0E0,0E0,0E0,0E0,0E0,0E0,0E0],"parents":[2147483647,0,0,1,1,2,2,3,3,4,4,5,5,6,6],"right_children":[2,4,6,8,10,12,14,-1,-1,-1,-1,-1,-1,-1,-1],"split_conditions":[1E0,1E0,1E0,1E0,1E0,1E0,1E0,-2.8828785E-2,2.5813996E-3,-1.5825316E-3,1.4154473E-2,1.5177786E-2,-1.2906009E-2,9.916707E-3,3.0006189E-2],"split_indices":[5,7,24,27,17,1,17,0,0,0,0,0,0,0,0],"split_type":[0,0,0,0,0,0,0,0,0,0,0,0,0,0,0],"sum_hessian":[4E1,1.9E1,2.1E1,1.3E1,6E0,1.1E1,1E1,7E0,6E0,3E0,3E0,6E0,5E0,4E0,6E0],"tree_param":{"num_deleted":"0","num_feature":"30","num_nodes":"15","size_leaf_vector":"1"}},{"base_weights":[3.360676E-2,1.2407676E-1,-7.767833E-2,1.189164E-2,2.4537946E-1,-1.723006E-1,7.396488E-2,-7.699147E-3,2.3112653E-2,3.0322177E-2,6.835002E-3,-2.52749E-2,-9.123057E-4,2.0746125E-2,-4.7625187E-3],"categories":[],"categories_nodes":[],"categories_segments":[],"categories_sizes":[],"default_left":[0,0,0,0,0,0,0,0,0,0,0,0,0,0,0],"id":20,"left_children":[1,3,5,7,9,11,13,-1,-1,-1,-1,-1,-1,-1,-1],"loss_changes":[4.224245E-1,3.100743E-1,2.8537193E-1,2.7111638E-1,9.191245E-2,1.5522262E-1,1.3973504E-1,0E0,0E0,0E0,0E0,0E0,0E0,0E0,0E0],"parents":[2147483647,0,0,1,1,2,2,3,3,4,4,5,5,6,6],"right_children":[2,4,6,8,10,12,14,-1,-1,-1,-1,-1,-1,-1,-1],"split_conditions":[1E0,2.4E1,1E0,1E0,1E0,1E0,1E0,-7.699147E-3,2.3112653E-2,3.0322177E-2,6.835002E-3,-2.52749E-2,-9.123057E-4,2.0746125E-2,-4.7625187E-3],"split_indices":[12,0,2,25,8,8,23,0,0,0,0,0,0,0,0],"split_type":[0,0,0,0,0,0,0,0,0,0,0,0,0,0,0],"sum_hessian":[4E1,2.2E1,1.8E1,1.2E1,1E1,1.1E1,7E0,9E0,3E0,7E0,3E0,7E0,4E0,3E0,4E0],"tree_param":{"num_deleted":"0","num_feature":"30","num_nodes":"15","size_leaf_vector":"1"}},{"base_weights":[-2.9577777E-2,5.4799397E-2,-1.5192199E-1,1.054268E-1,-1.2309187E-1,-1.1095094E-2,-2.2772801E-1,-9.835123E-3,1.6251827E-2,-4.708767E-6,-1.476914E-2,5.7932097E-3,-1.2244205E-2,-2.8814172E-2,2.94225E-3],"categories":[],"categories_nodes":[],"categories_segments":[],"categories_sizes":[],"default_left":[0,0,0,0,0,0,0,0,0,0,0,0,0,0,0],"id":21,"left_children":[1,3,5,7,9,11,13,-1,-1,-1,-1,-1,-1,-1,-1],"loss_changes":[4.3157062E-1,2.3813155E-1,1.7895728E-1,2.4866357E-1,1.8154114E-2,6.0895097E-2,1.7936748E-1,0E0,0E0,0E0,0E0,0E0,0E0,0E0,0E0],"parents":[2147483647,0,0,1,1,2,2,3,3,4,4,5,5,6,6],"right_children":[2,4,6,8,10,12,14,-1,-1,-1,-1,-1,-1,-1,-1],"split_conditions":[1E0,3.7E1,1E0,4E0,1E0,2.3E1,4.1E1,-9.835123E-3,1.6251827E-2,-4.708767E-6,-1.476914E-2,5.7932097E-3,-1.2244205E-2,-2.8814172E-2,2.94225E-3],"split_indices":[20,0,23,0,3,0,0,0,0,0,0,0,0,0,0],"split_type":[0,0,0,0,0,0,0,0,0,0,0,0,0,0,0],"sum_hessian":[4E1,2.4E1,1.6E1,1.9E1,5E0,6E0,1E1,4E0,1.5E1,1E0,4E0,4E0,2E0,8E0,2E0],"tree_param":{"num_deleted":"0","num_feature":"30","num_nodes":"15","size_leaf_vector":"1"}},{"base_weights":[-6.473211E-2,-1.4922442E-1,4.0955E-2,-2.760315E-1,-3.0447325E-2,1.4144857E-1,-6.363407E-2,-3.2734524E-2,-1.4898594E-2,-2.1549433E-2,1.589493E-2,-8.893137E-4,2.9356891E-2,-1.4904685E-2,1.0174682E-2],"categories":[],"categories_nodes":[],"categories_segments":[],"categories_sizes":[],"default_left":[0,0,0,0,0,0,0,0,0,0,0,0,0,0,0],"id":22,"left_children":[1,3,5,7,9,11,13,-1,-1,-1,-1,-1,-1,-1,-1],"loss_changes":[3.7223116E-1,3.380164E-1,2.0870098E-1,2.2941172E-2,4.8986727E-1,2.3131105E-1,1.5642145E-1,0E0,0E0,0E0,0E0,0E0,0E0,0E0,0E0],"parents":[2147483647,0,0,1,1,2,2,3,3,4,4,5,5,6,6],"right_children":[2,4,6,8,10,12,14,-1,-1,-1,-1,-1,-1,-1,-1],"split_conditions":[1E0,1E0,1E0,1E0,1E0,1E0,1E0,-3.2734524E-2,-1.4898594E-2,-2.1549433E-2,1.589493E-2,-8.893137E-4,2.9356891E-2,-1.4904685E-2,1.0174682E-2],"split_indices":[12,26,15,24,18,27,5,0,0,0,0,0,0,0,0],"split_type":[0,0,0,0,0,0,0,0,0,0,0,0,0,0,0],"sum_hessian":[4E1,2.2E1,1.8E1,1E1,1.2E1,9E0,9E0,6E0,4E0,6E0,6E0,5E0,4E0,6E0,3E0],"tree_param":{"num_deleted":"0","num_feature":"30","num_nodes":"15","size_leaf_vector":"1"}},{"base_weights":[2.3262383E-2,1.3892798E-1,-7.3298864E-2,2.2764623E-1,-9.123591E-2,-1.7421523E-1,7.5313926E-2,2.5337864E-2,4.8834602E-3,-1.7620413E-2,5.246698E-3,-3.0544003E-2,-3.7616603E-3,-3.6845056E-3,1.948419E-2],"categories":[],"categories_nodes":[],"categories_segments":[],"categories_sizes":[],"default_left":[0,0,0,0,0,0,0,0,0,0,0,0,0,0,0],"id":23,"left_children":[1,3,5,7,9,11,13,-1,-1,-1,-1,-1,-1,-1,-1],"loss_changes":[4.681047E-1,4.087445E-1,3.5806245E-1,5.2043855E-2,8.250596E-2,2.394622E-1,1.4124033E-1,0E0,0E0,0E0,0E0,0E0,0E0,0E0,0E0],"parents":[2147483647,0,0,1,1,2,2,3,3,4,4,5,5,6,6],"right_children":[2,4,6,8,10,12,14,-1,-1,-1,-1,-1,-1,-1,-1],"split_conditions":[1E0,1E0,1E0,1E0,1E0,1E0,1.5E1,2.5337864E-2,4.8834602E-3,-1.7620413E-2,5.246698E-3,-3.0544003E-2,-3.7616603E-3,-3.6845056E-3,1.948419E-2],"split_indices":[4,20,7,14,29,2,0,0,0,0,0,0,0,0,0],"split_type":[0,0,0,0,0,0,0,0,0,0,0,0,0,0,0],"sum_hessian":[4E1,1.8E1,2.2E1,1.3E1,5E0,1.3E1,9E0,1.1E1,2E0,3E0,2E0,6E0,7E0,5E0,4E0],"tree_param":{"num_deleted":"0","num_feature":"30","num_nodes":"15","size_leaf_vector":"1"}},{"base_weights":[2.1792341E-2,1.2759925E-1,-1.20494224E-1,1.8665513E-1,-1.3414411E-1,-2.4068609E-1,2.644054E-2,2.7048532E-2,2.7099194E-3,-1.754114E-3,-2.0603238E-2,-3.464217E-2,-1.1245872E-2,1.9701634E-2,-2.3603328E-2],"categories":[],"categories_nodes":[],"categories_segments":[],"categories_sizes":[],"default_left":[0,0,0,0,0,0,0,0,0,0,0,0,0,0,0],"id":24,"left_children":[1,3,5,7,9,11,13,-1,-1,-1,-1,-1,-1,-1,-1],"loss_changes":[6.3262594E-1,3.9601827E-1,3.2425043E-1,2.6018214E-1,3.8297884E-2,9.66239E-2,4.494475E-1,0E0,0E0,0E0,0E0,0E0,0E0,0E0,0E0],"parents":[2147483647,0,0,1,1,2,2,3,3,4,4,5,5,6,6],"right_children":[2,4,6,8,10,12,14,-1,-1,-1,-1,-1,-1,-1,-1],"split_conditions":[1E0,4.2E1,1E0,1E0,1E0,1E0,1E0,2.7048532E-2,2.7099194E-3,-1.754114E-3,-2.0603238E-2,-3.464217E-2,-1.1245872E-2,1.9701634E-2,-2.3603328E-2],"split_indices":[2,0,9,3,13,6,16,0,0,0,0,0,0,0,0],"split_type":[0,0,0,0,0,0,0,0,0,0,0,0,0,0,0],"sum_hessian":[4E1,2.3E1,1.7E1,1.9E1,4E0,9E0,8E0,1.2E1,7E0,2E0,2E0,4E0,5E0,5E0,3E0],"tree_param":{"num_deleted":"0","num_feature":"30","num_nodes":"15","size_leaf_vector":"1"}},{"base_weights":[-5.607282E-2,-1.615879E-1,1.18893735E-1,2.1795439E-2,-1.8548776E-1,2.5929776E-1,8.721551E-3,-1.0609526E-2,-2.50612E-2,3.0026603E-2,6.744072E-4,-1.31428065E-2,2.5180299E-2],"categories":[],"categories_nodes":[],"categories_segments":[],"categories_sizes":[],"default_left":[0,0,0,0,0,0,0,0,0,0,0,0,0],"id":25,"left_children":[1,3,5,-1,7,9,11,-1,-1,-1,-1,-1,-1],"loss_changes":[7.7613777E-1,2.7627409E-1,2.4523637E-1,0E0,1.0267067E-1,7.040182E-2,3.737717E-1,0E0,0E0,0E0,0E0,0E0,0E0],"parents":[2147483647,0,0,1,1,2,2,4,4,5,5,6,6],"right_children":[2,4,6,-1,8,10,12,-1,-1,-1,-1,-1,-1],"split_conditions":[1E0,1E0,1E0,2.1795439E-2,1E0,1E0,1E0,-1.0609526E-2,-2.50612E-2,3.0026603E-2,6.744072E-4,-1.31428065E-2,2.5180299E-2],"split_indices":[8,0,13,0,19,23,19,0,0,0,0,0,0],"split_type":[0,0,0,0,0,0,0,0,0,0,0,0,0],"sum_hessian":[4E1,2.5E1,1.5E1,1E0,2.4E1,6E0,9E0,1.2E1,1.2E1,5E0,1E0,6E0,3E0],"tree_param":{"num_deleted":"0","num_feature":"30","num_nodes":"13","size_leaf_vector":"1"}},{"base_weights":[9.441476E-3,9.6585676E-2,-1.3275793E-1,2.7568582E-1,-3.2582283E-2,-2.0566818E-1,2.303716E-2,1.7269729E-2,3.647326E-2,-1.1995542E-2,1.3303219E-2,-2.6903072E-2,-7.5826976E-3,-2.0649107E-2,1.1024102E-2],"categories":[],"categories_nodes":[],"categories_segments":[],"categories_sizes":[],"default_left":[0,0,0,0,0,0,0,0,0,0,0,0,0,0,0],"id":26,"left_children":[1,3,5,7,9,11,13,-1,-1,-1,-1,-1,-1,-1,-1],"loss_changes":[5.2088857E-1,6.104665E-1,1.8648294E-1,3.7890434E-2,2.4748203E-1,7.009792E-2,1.4285827E-1,0E0,0E0,0E0,0E0,0E0,0E0,0E0,0E0],"parents":[2147483647,0,0,1,1,2,2,3,3,4,4,5,5,6,6],"right_children":[2,4,6,8,10,12,14,-1,-1,-1,-1,-1,-1,-1,-1],"split_conditions":[1E0,1E0,1E0,1E0,1E0,1E0,1E0,1.7269729E-2,3.647326E-2,-1.1995542E-2,1.3303219E-2,-2.6903072E-2,-7.5826976E-3,-2.0649107E-2,1.1024102E-2],"split_indices":[7,17,20,22,1,22,10,0,0,0,0,0,0,0,0],"split_type":[0,0,0,0,0,0,0,0,0,0,0,0,0,0,0],"sum_hessian":[4E1,2.5E1,1.5E1,1E1,1.5E1,1E1,5E0,6E0,4E0,1E1,5E0,6E0,4E0,1E0,4E0],"tree_param":{"num_deleted":"0","num_feature":"30","num_nodes":"15","size_leaf_vector":"1"}},{"base_weights":[-1.9790756E-2,1.9083345E-1,-6.1350144E-2,2.5279095E-2,2.5199939E-2,1.9943E-2,-1.591322E-1,-6.783861E-3,1.0575726E-2,1.0629339E-2,-9.740674E-3,-2.2672307E-2,3.4912338E-3],"categories":[],"categories_nodes":[],"categories_segments":[],"categories_sizes":[],"default_left":[0,0,0,0,0,0,0,0,0,0,0,0,0],"id":27,"left_children":[1,3,5,7,-1,9,11,-1,-1,-1,-1,-1,-1],"loss_changes":[3.705976E-1,6.451368E-2,2.8138894E-1,2.965625E-2,0E0,2.130176E-1,2.1776563E-1,0E0,0E0,0E0,0E0,0E0,0E0],"parents":[2147483647,0,0,1,1,2,2,3,3,5,5,6,6],"right_children":[2,4,6,8,-1,10,12,-1,-1,-1,-1,-1,-1],"split_conditions":[6E0,1E0,1E0,3E0,2.5199939E-2,1E0,1E0,-6.783861E-3,1.0575726E-2,1.0629339E-2,-9.740674E-3,-2.2672307E-2,3.4912338E-3],"split_indices":[0,17,1,0,0,24,16,0,0,0,0,0,0],"split_type":[0,0,0,0,0,0,0,0,0,0,0,0,0],"sum_hessian":[4E1,6E0,3.4E1,2E0,4E0,1.9E1,1.5E1,1E0,1E0,1.1E1,8E0,1.1E1,4E0],"tree_param":{"num_deleted":"0","num_feature":"30","num_nodes":"13","size_leaf_vector":"1"}},{"base_weights":[2.6491083E-2,1.0315956E-1,-6.771239E-2,2.157642E-1,-1.8041702E-2,-1.6157159E-1,5.4528E-2,8.594815E-3,2.699287E-2,1.3445715E-2,-1.9295009E-2,-2.077363E-3,-2.7544094E-2,-2.3701757E-3,1.2185216E-2],"categories":[],"categories_nodes":[],"categories_segments":[],"categories_sizes":[],"default_left":[0,0,0,0,0,0,0,0,0,0,0,0,0,0,0],"id":28,"left_children":[1,3,5,7,9,11,13,-1,-1,-1,-1,-1,-1,-1,-1],"loss_changes":[3.031051E-1,3.1779268E-1,2.268045E-1,6.1177135E-2,3.4602344E-1,1.7063636E-1,5.0288886E-2,0E0,0E0,0E0,0E0,0E0,0E0,0E0,0E0],"parents":[2147483647,0,0,1,1,2,2,3,3,4,4,5,5,6,6],"right_children":[2,4,6,8,10,12,14,-1,-1,-1,-1,-1,-1,-1,-1],"split_conditions":[1E0,1E0,1E0,1E0,1E0,1E0,1E0,8.594815E-3,2.699287E-2,1.3445715E-2,-1.9295009E-2,-2.077363E-3,-2.7544094E-2,-2.3701757E-3,1.2185216E-2],"split_indices":[12,27,19,4,3,9,21,0,0,0,0,0,0,0,0],"split_type":[0,0,0,0,0,0,0,0,0,0,0,0,0,0,0],"sum_hessian":[4E1,2.2E1,1.8E1,1.1E1,1.1E1,1E1,8E0,4E0,7E0,6E0,5E0,5E0,5E0,4E0,4E0],"tree_param":{"num_deleted":"0","num_feature":"30","num_nodes":"15","size_leaf_vector":"1"}},{"base_weights":[1.5730465E-4,-1.0948595E-1,1.0979307E-1,-2.0180531E-1,1.2245888E-2,2.4048518E-1,1.0868292E-2,-2.7920267E-2,-1.0663539E-2,2.2828858E-2,-1.6983068E-2,3.268584E-2,-4.121399E-3,-7.2990297E-3,1.596401E-2],"categories":[],"categories_nodes":[],"categories_segments":[],"categories_sizes":[],"default_left":[0,0,0,0,0,0,0,0,0,0,0,0,0,0,0],"id":29,"left_children":[1,3,5,7,9,11,13,-1,-1,-1,-1,-1,-1,-1,-1],"loss_changes":[5.0487447E-1,2.384736E-1,2.688887E-1,5.861792E-2,4.3213347E-1,2.3245245E-1,1.7383751E-1,0E0,0E0,0E0,0E0,0E0,0E0,0E0,0E0],"parents":[2147483647,0,0,1,1,2,2,3,3,4,4,5,5,6,6],"right_children":[2,4,6,8,10,12,14,-1,-1,-1,-1,-1,-1,-1,-1],"split_conditions":[1E0,1E0,1E0,1E0,1E0,1E0,1E0,-2.7920267E-2,-1.0663539E-2,2.2828858E-2,-1.6983068E-2,3.268584E-2,-4.121399E-3,-7.2990297E-3,1.596401E-2],"split_indices":[3,22,17,7,27,7,5,0,0,0,0,0,0,0,0],"split_type":[0,0,0,0,0,0,0,0,0,0,0,0,0,0,0],"sum_hessian":[4E1,2E1,2E1,1.1E1,9E0,8E0,1.2E1,5E0,6E0,4E0,5E0,6E0,2E0,8E0,4E0],"tree_param":{"num_deleted":"0","num_feature":"30","num_nodes":"15","size_leaf_vector":"1"}},{"base_weights":[-4.7975246E-2,5.3884342E-2,-1.22370966E-1,-4.379776E-2,1.8146169E-1,-1.8943502E-1,3.5436504E-2,-1.5185878E-2,7.156288E-3,-5.0836783E-3,2.673673E-2,-8.961554E-3,-2.3573514E-2,1.98826E-2,-1.776595E-2],"categories":[],"categories_nodes":[],"categories_segments":[],"categories_sizes":[],"default_left":[0,0,0,0,0,0,0,0,0,0,0,0,0,0,0],"id":30,"left_children":[1,3,5,7,9,11,13,-1,-1,-1,-1,-1,-1,-1,-1],"loss_changes":[3.1728852E-1,2.3226403E-1,2.6070982E-1,1.4799333E-1,1.7323804E-1,5.7442665E-2,3.138645E-1,0E0,0E0,0E0,0E0,0E0,0E0,0E0,0E0],"parents":[2147483647,0,0,1,1,2,2,3,3,4,4,5,5,6,6],"right_children":[2,4,6,8,10,12,14,-1,-1,-1,-1,-1,-1,-1,-1],"split_conditions":[1E0,1E0,1E0,1E0,1E0,1E0,1E0,-1.5185878E-2,7.156288E-3,-5.0836783E-3,2.673673E-2,-8.961554E-3,-2.3573514E-2,1.98826E-2,-1.776595E-2],"split_indices":[6,16,29,2,4,23,19,0,0,0,0,0,0,0,0],"split_type":[0,0,0,0,0,0,0,0,0,0,0,0,0,0,0],"sum_hessian":[4E1,1.7E1,2.3E1,1E1,7E0,1.6E1,7E0,5E0,5E0,2E0,5E0,6E0,1E1,4E0,3E0],"tree_param":{"num_deleted":"0","num_feature":"30","num_nodes":"15","size_leaf_vector":"1"}},{"base_weights":[-4.719912E-2,-1.1404892E-1,3.6208495E-2,-2.8640728E-2,-3.0517614E-1,-1.01303644E-1,1.07468225E-1,9.370288E-3,-8.74258E-3,-3.3273596E-2,-6.9908607E-3,-1.5802508E-2,1.1951244E-2,1.7050108E-2,5.513057E-4],"categories":[],"categories_nodes":[],"categories_segments":[],"categories_sizes":[],"default_left":[0,0,0,0,0,0,0,0,0,0,0,0,0,0,0],"id":31,"left_children":[1,3,5,7,9,11,13,-1,-1,-1,-1,-1,-1,-1,-1],"loss_changes":[2.327366E-1,3.6670762E-1,1.9706942E-1,1.3045567E-1,2.2126436E-2,1.0656098E-1,8.260484E-2,0E0,0E0,0E0,0E0,0E0,0E0,0E0,0E0],"parents":[2147483647,0,0,1,1,2,2,3,3,4,4,5,5,6,6],"right_children":[2,4,6,8,10,12,14,-1,-1,-1,-1,-1,-1,-1,-1],"split_conditions":[1E0,1E0,1E0,7E0,4.1E1,1E0,1E0,9.370288E-3,-8.74258E-3,-3.3273596E-2,-6.9908607E-3,-1.5802508E-2,1.1951244E-2,1.7050108E-2,5.513057E-4],"split_indices":[27,16,10,0,0,25,26,0,0,0,0,0,0,0,0],"split_type":[0,0,0,0,0,0,0,0,0,0,0,0,0,0,0],"sum_hessian":[4E1,2.2E1,1.8E1,1.6E1,6E0,6E0,1.2E1,5E0,1.1E1,5E0,1E0,5E0,1E0,7E0,5E0],"tree_param":{"num_deleted":"0","num_feature":"30","num_nodes":"15","size_leaf_vector":"1"}},{"base_weights":[3.265017E-2,-7.8555465E-2,1.2309612E-1,-1.8269774E-1,1.3793263E-2,4.5213114E-2,2.9465541E-2,-3.160886E-2,-1.2767332E-3,-1.6130088E-2,1.8658852E-2,-1.0648894E-2,1.6205346E-2],"categories":[],"categories_nodes":[],"categories_segments":[],"categories_sizes":[],"default_left":[0,0,0,0,0,0,0,0,0,0,0,0,0],"id":32,"left_children":[1,3,5,7,9,11,-1,-1,-1,-1,-1,-1,-1],"loss_changes":[4.2205197E-1,1.8525073E-1,2.9399344E-1,1.999689E-1,3.6290666E-1,3.1858054E-1,0E0,0E0,0E0,0E0,0E0,0E0,0E0],"parents":[2147483647,0,0,1,1,2,2,3,3,4,4,5,5],"right_children":[2,4,6,8,10,12,-1,-1,-1,-1,-1,-1,-1],"split_conditions":[1E0,1E0,1E0,1E0,2.2E1,1E0,2.9465541E-2,-3.160886E-2,-1.2767332E-3,-1.6130088E-2,1.8658852E-2,-1.0648894E-2,1.6205346E-2],"split_indices":[13,22,22,20,0,3,0,0,0,0,0,0,0],"split_type":[0,0,0,0,0,0,0,0,0,0,0,0,0],"sum_hessian":[4E1,1.8E1,2.2E1,8E0,1E1,1.6E1,6E0,4E0,4E0,5E0,5E0,7E0,9E0],"tree_param":{"num_deleted":"0","num_feature":"30","num_nodes":"13","size_leaf_vector":"1"}},{"base_weights":[-3.4621872E-2,1.8017909E-1,-6.27133E-2,2.1314884E-2,2.4150074E-3,-1.046022E-1,1.3175373E-1,-1.0733801E-3,-2.0401292E-2,1.8919457E-2,-7.898907E-4],"categories":[],"categories_nodes":[],"categories_segments":[],"categories_sizes":[],"default_left":[0,0,0,0,0,0,0,0,0,0,0],"id":33,"left_children":[1,3,5,-1,-1,7,9,-1,-1,-1,-1],"loss_changes":[2.5869638E-1,2.0573616E-2,3.1518412E-1,0E0,0E0,2.870874E-1,5.764678E-2,0E0,0E0,0E0,0E0],"parents":[2147483647,0,0,1,1,2,2,5,5,6,6],"right_children":[2,4,6,-1,-1,8,10,-1,-1,-1,-1],"split_conditions":[4E0,1E0,4.2E1,2.1314884E-2,2.4150074E-3,1E0,1E0,-1.0733801E-3,-2.0401292E-2,1.8919457E-2,-7.898907E-4],"split_indices":[0,14,0,0,0,13,5,0,0,0,0],"split_type":[0,0,0,0,0,0,0,0,0,0,0],"sum_hessian":[4E1,4E0,3.6E1,3E0,1E0,3E1,6E0,1.6E1,1.4E1,4E0,2E0],"tree_param":{"num_deleted":"0","num_feature":"30","num_nodes":"11","size_leaf_vector":"1"}},{"base_weights":[4.425421E-2,-4.8638582E-2,1.4422357E-1,1.9001445E-2,-1.3170676E-1,4.497252E-2,1.835474E-1,1.6501674E-2,-4.130482E-3,1.563297E-2,-1.8108077E-2,1.2301176E-2,-2.1163147E-2,6.4320774E-3,2.9358536E-2],"categories":[],"categories_nodes":[],"categories_segments":[],"categories_sizes":[],"default_left":[0,0,0,0,0,0,0,0,0,0,0,0,0,0,0],"id":34,"left_children":[1,3,5,7,9,11,13,-1,-1,-1,-1,-1,-1,-1,-1],"loss_changes":[3.8775858E-1,1.2611477E-1,6.980404E-2,1.2128927E-1,1.7052346E-1,1.6620941E-1,1.6478878E-1,0E0,0E0,0E0,0E0,0E0,0E0,0E0,0E0],"parents":[2147483647,0,0,1,1,2,2,3,3,4,4,5,5,6,6],"right_children":[2,4,6,8,10,12,14,-1,-1,-1,-1,-1,-1,-1,-1],"split_conditions":[1E0,1E0,1E0,1E0,5E0,1E0,1E0,1.6501674E-2,-4.130482E-3,1.563297E-2,-1.8108077E-2,1.2301176E-2,-2.1163147E-2,6.4320774E-3,2.9358536E-2],"split_indices":[1,24,23,9,0,16,26,0,0,0,0,0,0,0,0],"split_type":[0,0,0,0,0,0,0,0,0,0,0,0,0,0,0],"sum_hessian":[4E1,2.1E1,1.9E1,1.2E1,9E0,6E0,1.3E1,3E0,9E0,1E0,8E0,5E0,1E0,7E0,6E0],"tree_param":{"num_deleted":"0","num_feature":"30","num_nodes":"15","size_leaf_vector":"1"}},{"base_weights":[-4.3135058E-2,4.681865E-2,-1.2295048E-1,-3.9133944E-2,2.1203546E-1,-2.2290079E-2,-2.0497663E-1,6.877457E-3,-2.4712417E-2,2.8764E-2,1.5349408E-3,6.7126616E-3,-1.9555096E-2,-2.6222816E-2,-7.237886E-3],"categories":[],"categories_nodes":[],"categories_segments":[],"categories_sizes":[],"default_left":[0,0,0,0,0,0,0,0,0,0,0,0,0,0,0],"id":35,"left_children":[1,3,5,7,9,11,13,-1,-1,-1,-1,-1,-1,-1,-1],"loss_changes":[3.001238E-1,2.9231405E-1,1.770803E-1,3.312107E-1,9.967744E-2,1.8354322E-1,7.211739E-2,0E0,0E0,0E0,0E0,0E0,0E0,0E0,0E0],"parents":[2147483647,0,0,1,1,2,2,3,3,4,4,5,5,6,6],"right_children":[2,4,6,8,10,12,14,-1,-1,-1,-1,-1,-1,-1,-1],"split_conditions":[1E0,1E0,1E0,1E0,1E0,1E0,1E0,6.877457E-3,-2.4712417E-2,2.8764E-2,1.5349408E-3,6.7126616E-3,-1.9555096E-2,-2.6222816E-2,-7.237886E-3],"split_indices":[15,29,21,19,5,27,1,0,0,0,0,0,0,0,0],"split_type":[0,0,0,0,0,0,0,0,0,0,0,0,0,0,0],"sum_hessian":[4E1,1.9E1,2.1E1,1.3E1,6E0,1E1,1.1E1,9E0,4E0,4E0,2E0,7E0,3E0,7E0,4E0],"tree_param":{"num_deleted":"0","num_feature":"30","num_nodes":"15","size_leaf_vector":"1"}},{"base_weights":[3.489423E-2,-4.837315E-2,1.02163196E-1,8.8748276E-2,-2.1059123E-1,9.60601E-3,2.0226139E-1,1.3554695E-2,-1.896192E-2,-6.922112E-3,-3.098431E-2,1.9539952E-2,-6.5671997E-3,8.609977E-3,3.244354E-2],"categories":[],"categories_nodes":[],"categories_segments":[],"categories_sizes":[],"default_left":[0,0,0,0,0,0,0,0,0,0,0,0,0,0,0],"id":36,"left_children":[1,3,5,7,9,11,13,-1,-1,-1,-1,-1,-1,-1,-1],"loss_changes":[2.3459569E-1,4.413175E-1,2.1114765E-1,1.690018E-1,1.0483351E-1,1.9465244E-1,1.2817737E-1,0E0,0E0,0E0,0E0,0E0,0E0,0E0,0E0],"parents":[2147483647,0,0,1,1,2,2,3,3,4,4,5,5,6,6],"right_children":[2,4,6,8,10,12,14,-1,-1,-1,-1,-1,-1,-1,-1],"split_conditions":[1E0,1E0,3.4E1,3.6E1,1.1E1,1E0,1E0,1.3554695E-2,-1.896192E-2,-6.922112E-3,-3.098431E-2,1.9539952E-2,-6.5671997E-3,8.609977E-3,3.244354E-2],"split_indices":[28,12,0,0,0,17,13,0,0,0,0,0,0,0,0],"split_type":[0,0,0,0,0,0,0,0,0,0,0,0,0,0,0],"sum_hessian":[4E1,1.8E1,2.2E1,1E1,8E0,1.2E1,1E1,9E0,1E0,4E0,4E0,3E0,9E0,6E0,4E0],"tree_param":{"num_deleted":"0","num_feature":"30","num_nodes":"15","size_leaf_vector":"1"}},{"base_weights":[2.9729053E-2,7.1226075E-2,-2.2420791E-1,1.558344E-1,3.3708583E-3,-2.6012314E-2,-2.231592E-3,6.2442436E-3,2.6698947E-2,1.1190566E-2,-1.0547038E-2],"categories":[],"categories_nodes":[],"categories_segments":[],"categories_sizes":[],"default_left":[0,0,0,0,0,0,0,0,0,0,0],"id":37,"left_children":[1,3,5,7,9,-1,-1,-1,-1,-1,-1],"loss_changes":[4.4801214E-1,2.0615493E-1,3.770107E-2,1.4942434E-1,2.59877E-1,0E0,0E0,0E0,0E0,0E0,0E0],"parents":[2147483647,0,0,1,1,2,2,3,3,4,4],"right_children":[2,4,6,8,10,-1,-1,-1,-1,-1,-1],"split_conditions":[4.3E1,1E0,1E0,1E0,1E0,-2.6012314E-2,-2.231592E-3,6.2442436E-3,2.6698947E-2,1.1190566E-2,-1.0547038E-2],"split_indices":[0,6,26,29,5,0,0,0,0,0,0],"split_type":[0,0,0,0,0,0,0,0,0,0,0],"sum_hessian":[4E1,3.5E1,5E0,1.5E1,2E1,4E0,1E0,9E0,6E0,1E1,1E1],"tree_param":{"num_deleted":"0","num_feature":"30","num_nodes":"11","size_leaf_vector":"1"}},{"base_weights":[9.541475E-2,2.1560267E-1,1.7783156E-2,2.4936669E-1,-1.4542885E-2,-4.9558483E-2,2.5051504E-1,8.11855E-3,3.03143E-2,-1.2038006E-2,4.038326E-3,2.8709123E-2,3.3817054E-3],"categories":[],"categories_nodes":[],"categories_segments":[],"categories_sizes":[],"default_left":[0,0,0,0,0,0,0,0,0,0,0,0,0],"id":38,"left_children":[1,3,5,7,-1,9,11,-1,-1,-1,-1,-1,-1],"loss_changes":[3.787115E-1,2.3130316E-1,4.1990137E-1,1.110515E-1,0E0,1.3862747E-1,3.784731E-2,0E0,0E0,0E0,0E0,0E0,0E0],"parents":[2147483647,0,0,1,1,2,2,3,3,5,5,6,6],"right_children":[2,4,6,8,-1,10,12,-1,-1,-1,-1,-1,-1],"split_conditions":[1E0,4.6E1,4.1E1,1E1,-1.4542885E-2,1E0,4.9E1,8.11855E-3,3.03143E-2,-1.2038006E-2,4.038326E-3,2.8709123E-2,3.3817054E-3],"split_indices":[10,0,0,0,0,11,0,0,0,0,0,0,0],"split_type":[0,0,0,0,0,0,0,0,0,0,0,0,0],"sum_hessian":[4E1,1.5E1,2.5E1,1.4E1,1E0,2E1,5E0,4E0,1E1,1.1E1,9E0,4E0,1E0],"tree_param":{"num_deleted":"0","num_feature":"30","num_nodes":"13","size_leaf_vector":"1"}},{"base_weights":[6.3637696E-4,7.148341E-2,-8.515932E-2,1.6906439E-1,-1.658382E-2,-1.0218396E-2,-2.121697E-1,1.9738993E-3,2.0005459E-2,-1.5958125E-2,9.273723E-3,1.0437753E-2,-7.2747427E-3,-9.413969E-3,-2.4055377E-2],"categories":[],"categories_nodes":[],"categories_segments":[],"categories_sizes":[],"default_left":[0,0,0,0,0,0,0,0,0,0,0,0,0,0,0],"id":39,"left_children":[1,3,5,7,9,11,13,-1,-1,-1,-1,-1,-1,-1,-1],"loss_changes":[2.5530067E-1,2.0045851E-1,1.786792E-1,4.695496E-2,2.180233E-1,1.0074563E-1,8.05527E-4,0E0,0E0,0E0,0E0,0E0,0E0,0E0,0E0],"parents":[2147483647,0,0,1,1,2,2,3,3,4,4,5,5,6,6],"right_children":[2,4,6,8,10,12,14,-1,-1,-1,-1,-1,-1,-1,-1],"split_conditions":[1E0,1E0,1E0,4E0,1E0,1E0,7E0,1.9738993E-3,2.0005459E-2,-1.5958125E-2,9.273723E-3,1.0437753E-2,-7.2747427E-3,-9.413969E-3,-2.4055377E-2],"split_indices":[12,28,11,0,18,10,0,0,0,0,0,0,0,0,0],"split_type":[0,0,0,0,0,0,0,0,0,0,0,0,0,0,0],"sum_hessian":[4E1,2.2E1,1.8E1,1E1,1.2E1,1.2E1,6E0,2E0,8E0,5E0,7E0,4E0,8E0,2E0,4E0],"tree_param":{"num_deleted":"0","num_feature":"30","num_nodes":"15","size_leaf_vector":"1"}},{"base_weights":[-7.830285E-2,-1.6219936E-1,3.7909318E-2,-6.910378E-2,-2.4953629E-1,1.52284E-1,-6.881882E-2,-2.377308E-2,6.6004447E-3,-3.0773142E-2,-1.4005259E-2,-5.4694857E-3,2.6488924E-2,-1.4888741E-2,1.6763704E-2],"categories":[],"categories_nodes":[],"categories_segments":[],"categories_sizes":[],"default_left":[0,0,0,0,0,0,0,0,0,0,0,0,0,0,0],"id":40,"left_children":[1,3,5,7,9,11,13,-1,-1,-1,-1,-1,-1,-1,-1],"loss_changes":[4.0589052E-1,1.7789245E-1,2.3020595E-1,3.1186897E-1,3.3358455E-2,2.242502E-1,2.1428591E-1,0E0,0E0,0E0,0E0,0E0,0E0,0E0,0E0],"parents":[2147483647,0,0,1,1,2,2,3,3,4,4,5,5,6,6],"right_children":[2,4,6,8,10,12,14,-1,-1,-1,-1,-1,-1,-1,-1],"split_conditions":[1E0,1E0,1E0,1E0,1E0,1E0,1E0,-2.377308E-2,6.6004447E-3,-3.0773142E-2,-1.4005259E-2,-5.4694857E-3,2.6488924E-2,-1.4888741E-2,1.6763704E-2],"split_indices":[14,26,16,17,4,23,12,0,0,0,0,0,0,0,0],"split_type":[0,0,0,0,0,0,0,0,0,0,0,0,0,0,0],"sum_hessian":[4E1,2.3E1,1.7E1,1.2E1,1.1E1,8E0,9E0,5E0,7E0,6E0,5E0,3E0,5E0,7E0,2E0],"tree_param":{"num_deleted":"0","num_feature":"30","num_nodes":"15","size_leaf_vector":"1"}},{"base_weights":[-5.490004E-2,-1.4659376E-1,2.323391E-2,-2.115971E-1,-3.0764528E-2,-8.453327E-2,1.4848295E-1,-1.4554948E-2,-2.7495388E-2,-1.5339145E-2,2.2474416E-2,1.976309E-3,-2.0950621E-2,1.6374074E-2,-2.047494E-4],"categories":[],"categories_nodes":[],"categories_segments":[],"categories_sizes":[],"default_left":[0,0,0,0,0,0,0,0,0,0,0,0,0,0,0],"id":41,"left_children":[1,3,5,7,9,11,13,-1,-1,-1,-1,-1,-1,-1,-1],"loss_changes":[2.9714605E-1,1.3654676E-1,3.2299966E-1,1.0195315E-2,2.8513178E-1,1.7358536E-1,2.5599614E-2,0E0,0E0,0E0,0E0,0E0,0E0,0E0,0E0],"parents":[2147483647,0,0,1,1,2,2,3,3,4,4,5,5,6,6],"right_children":[2,4,6,8,10,12,14,-1,-1,-1,-1,-1,-1,-1,-1],"split_conditions":[1E0,1E0,1E0,1E0,1E0,1E0,4.9E1,-1.4554948E-2,-2.7495388E-2,-1.5339145E-2,2.2474416E-2,1.976309E-3,-2.0950621E-2,1.6374074E-2,-2.047494E-4],"split_indices":[28,9,4,11,25,8,0,0,0,0,0,0,0,0,0],"split_type":[0,0,0,0,0,0,0,0,0,0,0,0,0,0,0],"sum_hessian":[4E1,1.8E1,2.2E1,1.1E1,7E0,1.2E1,1E1,7E0,4E0,5E0,2E0,7E0,5E0,9E0,1E0],"tree_param":{"num_deleted":"0","num_feature":"30","num_nodes":"15","size_leaf_vector":"1"}},{"base_weights":[2.1223282E-2,1.2927665E-1,-5.3101934E-2,-1.3201676E-2,1.7291687E-1,5.9758805E-2,-1.6187792E-1,4.3272558E-3,2.5453836E-2,1.6635051E-2,-2.765483E-3,-2.9969008E-3,-2.706614E-2],"categories":[],"categories_nodes":[],"categories_segments":[],"categories_sizes":[],"default_left":[0,0,0,0,0,0,0,0,0,0,0,0,0],"id":42,"left_children":[1,3,5,-1,7,9,11,-1,-1,-1,-1,-1,-1],"loss_changes":[3.3613953E-1,2.1667731E-1,3.16587E-1,0E0,1.4771196E-1,1.2572879E-1,1.784322E-1,0E0,0E0,0E0,0E0,0E0,0E0],"parents":[2147483647,0,0,1,1,2,2,4,4,5,5,6,6],"right_children":[2,4,6,-1,8,10,12,-1,-1,-1,-1,-1,-1],"split_conditions":[1E0,2E0,1E0,-1.3201676E-2,1E0,1E0,1E0,4.3272558E-3,2.5453836E-2,1.6635051E-2,-2.765483E-3,-2.9969008E-3,-2.706614E-2],"split_indices":[21,0,9,0,13,23,19,0,0,0,0,0,0],"split_type":[0,0,0,0,0,0,0,0,0,0,0,0,0],"sum_hessian":[4E1,1.6E1,2.4E1,2E0,1.4E1,1.2E1,1.2E1,6E0,8E0,5E0,7E0,6E0,6E0],"tree_param":{"num_deleted":"0","num_feature":"30","num_nodes":"13","size_leaf_vector":"1"}},{"base_weights":[5.86172E-3,1.1260655E-1,-8.257365E-2,-1.4024128E-1,1.8938206E-1,6.970053E-2,-1.5354988E-1,-1.6724268E-3,-2.170112E-2,2.777339E-2,7.7357474E-3,-6.0781045E-3,3.0743018E-2,-7.6054856E-3,-2.2153808E-2],"categories":[],"categories_nodes":[],"categories_segments":[],"categories_sizes":[],"default_left":[0,0,0,0,0,0,0,0,0,0,0,0,0,0,0],"id":43,"left_children":[1,3,5,7,9,11,13,-1,-1,-1,-1,-1,-1,-1,-1],"loss_changes":[3.963391E-1,3.9539707E-1,2.59283E-1,4.378259E-2,1.2697881E-1,2.6684064E-1,6.745091E-2,0E0,0E0,0E0,0E0,0E0,0E0,0E0,0E0],"parents":[2147483647,0,0,1,1,2,2,3,3,4,4,5,5,6,6],"right_children":[2,4,6,8,10,12,14,-1,-1,-1,-1,-1,-1,-1,-1],"split_conditions":[1E0,1E0,2.4E1,5E0,1E0,2.1E1,1E0,-1.6724268E-3,-2.170112E-2,2.777339E-2,7.7357474E-3,-6.0781045E-3,3.0743018E-2,-7.6054856E-3,-2.2153808E-2],"split_indices":[28,23,0,0,17,0,8,0,0,0,0,0,0,0,0],"split_type":[0,0,0,0,0,0,0,0,0,0,0,0,0,0,0],"sum_hessian":[4E1,1.8E1,2.2E1,4E0,1.4E1,7E0,1.5E1,2E0,2E0,7E0,7E0,5E0,2E0,8E0,7E0],"tree_param":{"num_deleted":"0","num_feature":"30","num_nodes":"15","size_leaf_vector":"1"}},{"base_weights":[2.530915E-2,9.974067E-2,-5.032757E-2,1.9535627E-2,2.5735995E-1,-1.5036084E-1,7.474511E-2,1.0060697E-2,-8.748976E-3,3.0518023E-2,9.187285E-3,-2.369786E-2,-2.4246643E-3,2.186576E-2,-5.7639494E-3],"categories":[],"categories_nodes":[],"categories_segments":[],"categories_sizes":[],"default_left":[0,0,0,0,0,0,0,0,0,0,0,0,0,0,0],"id":44,"left_children":[1,3,5,7,9,11,13,-1,-1,-1,-1,-1,-1,-1,-1],"loss_changes":[2.358397E-1,2.6045138E-1,2.7397877E-1,1.3895243E-1,2.7357697E-2,1.2533882E-1,2.0312132E-1,0E0,0E0,0E0,0E0,0E0,0E0,0E0,0E0],"parents":[2147483647,0,0,1,1,2,2,3,3,4,4,5,5,6,6],"right_children":[2,4,6,8,10,12,14,-1,-1,-1,-1,-1,-1,-1,-1],"split_conditions":[1E0,1E0,1E0,1E0,1E0,2.2E1,1E0,1.0060697E-2,-8.748976E-3,3.0518023E-2,9.187285E-3,-2.369786E-2,-2.4246643E-3,2.186576E-2,-5.7639494E-3],"split_indices":[3,29,24,17,13,0,23,0,0,0,0,0,0,0,0],"split_type":[0,0,0,0,0,0,0,0,0,0,0,0,0,0,0],"sum_hessian":[4E1,2E1,2E1,1.4E1,6E0,1.1E1,9E0,8E0,6E0,4E0,2E0,6E0,5E0,4E0,5E0],"tree_param":{"num_deleted":"0","num_feature":"30","num_nodes":"15","size_leaf_vector":"1"}},{"base_weights":[5.080835E-2,1.2870693E-1,-5.587912E-2,2.15107E-1,2.4381302E-2,-1.8369667E-1,6.4744584E-2,7.0093195E-3,3.293912E-2,-1.1468328E-2,1.8255977E-2,-7.5504943E-3,-2.5514906E-2,1.9581378E-2,-1.0548736E-2],"categories":[],"categories_nodes":[],"categories_segments":[],"categories_sizes":[],"default_left":[0,0,0,0,0,0,0,0,0,0,0,0,0,0,0],"id":45,"left_children":[1,3,5,7,9,11,13,-1,-1,-1,-1,-1,-1,-1,-1],"loss_changes":[3.47935E-1,2.1108517E-1,2.8941423E-1,1.923582E-1,2.8490078E-1,5.0309986E-2,2.4377751E-1,0E0,0E0,0E0,0E0,0E0,0E0,0E0,0E0],"parents":[2147483647,0,0,1,1,2,2,3,3,4,4,5,5,6,6],"right_children":[2,4,6,8,10,12,14,-1,-1,-1,-1,-1,-1,-1,-1],"split_conditions":[1E0,1E0,1E0,1E0,1E0,1E0,1E0,7.0093195E-3,3.293912E-2,-1.1468328E-2,1.8255977E-2,-7.5504943E-3,-2.5514906E-2,1.9581378E-2,-1.0548736E-2],"split_indices":[2,14,10,7,22,26,28,0,0,0,0,0,0,0,0],"split_type":[0,0,0,0,0,0,0,0,0,0,0,0,0,0,0],"sum_hessian":[4E1,2.3E1,1.7E1,1.2E1,1.1E1,8E0,9E0,6E0,6E0,6E0,5E0,4E0,4E0,5E0,4E0],"tree_param":{"num_deleted":"0","num_feature":"30","num_nodes":"15","size_leaf_vector":"1"}},{"base_weights":[2.339374E-3,1.9119618E-2,-1.576578E-2,-4.5702692E-2,1.0188264E-1,5.862463E-3,-1.3752751E-2,2.4152327E-2,3.7583575E-4],"categories":[],"categories_nodes":[],"categories_segments":[],"categories_sizes":[],"default_left":[0,0,0,0,0,0,0,0,0],"id":46,"left_children":[1,3,-1,5,7,-1,-1,-1,-1],"loss_changes":[1.1309081E-1,2.0852213E-1,0E0,2.1881893E-1,2.3202859E-1,0E0,0E0,0E0,0E0],"parents":[2147483647,0,0,1,1,3,3,4,4],"right_children":[2,4,-1,6,8,-1,-1,-1,-1],"split_conditions":[4.6E1,2.4E1,-1.576578E-2,1E0,1E0,5.862463E-3,-1.3752751E-2,2.4152327E-2,3.7583575E-4],"split_indices":[0,0,0,22,17,0,0,0,0],"split_type":[0,0,0,0,0,0,0,0,0],"sum_hessian":[4E1,3.7E1,3E0,2.1E1,1.6E1,1E1,1.1E1,6E0,1E1],"tree_param":{"num_deleted":"0","num_feature":"30","num_nodes":"9","size_leaf_vector":"1"}},{"base_weights":[2.0721309E-2,7.8862324E-2,-7.5052924E-2,1.7763764E-1,-5.117867E-2,1.09327175E-1,-1.6880089E-1,2.6131282E-2,7.175775E-3,7.615539E-3,-1.912053E-2,2.4594745E-2,-2.0469823E-3,-1.9155182E-2,2.935417E-3],"categories":[],"categories_nodes":[],"categories_segments":[],"categories_sizes":[],"default_left":[0,0,0,0,0,0,0,0,0,0,0,0,0,0,0],"id":47,"left_children":[1,3,5,7,9,11,13,-1,-1,-1,-1,-1,-1,-1,-1],"loss_changes":[2.3422371E-1,3.4305707E-1,2.9501867E-1,1.1414155E-1,2.285232E-1,1.11431904E-1,5.5213183E-2,0E0,0E0,0E0,0E0,0E0,0E0,0E0,0E0],"parents":[2147483647,0,0,1,1,2,2,3,3,4,4,5,5,6,6],"right_children":[2,4,6,8,10,12,14,-1,-1,-1,-1,-1,-1,-1,-1],"split_conditions":[1E0,1E0,1E0,1E0,1E0,1.5E1,4.2E1,2.6131282E-2,7.175775E-3,7.615539E-3,-1.912053E-2,2.4594745E-2,-2.0469823E-3,-1.9155182E-2,2.935417E-3],"split_indices":[7,20,10,5,28,0,0,0,0,0,0,0,0,0,0],"split_type":[0,0,0,0,0,0,0,0,0,0,0,0,0,0,0],"sum_hessian":[4E1,2.5E1,1.5E1,1.4E1,1.1E1,5E0,1E1,7E0,7E0,6E0,5E0,2E0,3E0,9E0,1E0],"tree_param":{"num_deleted":"0","num_feature":"30","num_nodes":"15","size_leaf_vector":"1"}},{"base_weights":[-3.600212E-2,-1.1068449E-1,4.79486E-2,3.937282E-3,-2.0653075E-1,-8.988408E-2,2.2639789E-1,1.68741E-2,-7.895674E-3,-1.2609459E-2,-2.6595116E-2,-2.4021823E-2,1.5310273E-3,2.9762775E-2,-1.5271067E-3],"categories":[],"categories_nodes":[],"categories_segments":[],"categories_sizes":[],"default_left":[0,0,0,0,0,0,0,0,0,0,0,0,0,0,0],"id":48,"left_children":[1,3,5,7,9,11,13,-1,-1,-1,-1,-1,-1,-1,-1],"loss_changes":[2.623624E-1,2.4250662E-1,5.122725E-1,1.6359687E-1,2.3819625E-2,1.9344941E-1,1.5947148E-1,0E0,0E0,0E0,0E0,0E0,0E0,0E0,0E0],"parents":[2147483647,0,0,1,1,2,2,3,3,4,4,5,5,6,6],"right_children":[2,4,6,8,10,12,14,-1,-1,-1,-1,-1,-1,-1,-1],"split_conditions":[1E0,1E0,1E0,1E0,1E0,1E0,3.5E1,1.68741E-2,-7.895674E-3,-1.2609459E-2,-2.6595116E-2,-2.4021823E-2,1.5310273E-3,2.9762775E-2,-1.5271067E-3],"split_indices":[26,4,7,13,20,5,0,0,0,0,0,0,0,0,0],"split_type":[0,0,0,0,0,0,0,0,0,0,0,0,0,0,0],"sum_hessian":[4E1,2.1E1,1.9E1,1E1,1.1E1,1.1E1,8E0,3E0,7E0,6E0,5E0,4E0,7E0,6E0,2E0],"tree_param":{"num_deleted":"0","num_feature":"30","num_nodes":"15","size_leaf_vector":"1"}},{"base_weights":[2.8389825E-2,-7.3706485E-2,1.1991421E-1,-1.3852084E-1,6.64517E-2,2.1795668E-2,2.1605133E-1,-2.6306266E-2,2.3601379E-3,-1.4638416E-3,1.3092889E-2,1.3876836E-2,-1.1830508E-2,9.123372E-3,2.7434228E-2],"categories":[],"categories_nodes":[],"categories_segments":[],"categories_sizes":[],"default_left":[0,0,0,0,0,0,0,0,0,0,0,0,0,0,0],"id":49,"left_children":[1,3,5,7,9,11,13,-1,-1,-1,-1,-1,-1,-1,-1],"loss_changes":[3.9195484E-1,1.9089016E-1,2.0281333E-1,2.8888255E-1,3.851583E-2,2.1307251E-1,5.500382E-2,0E0,0E0,0E0,0E0,0E0,0E0,0E0,0E0],"parents":[2147483647,0,0,1,1,2,2,3,3,4,4,5,5,6,6],"right_children":[2,4,6,8,10,12,14,-1,-1,-1,-1,-1,-1,-1,-1],"split_conditions":[1E0,1E0,1E0,1E0,1E0,1E0,1E0,-2.6306266E-2,2.3601379E-3,-1.4638416E-3,1.3092889E-2,1.3876836E-2,-1.1830508E-2,9.123372E-3,2.7434228E-2],"split_indices":[5,7,24,27,17,1,17,0,0,0,0,0,0,0,0],"split_type":[0,0,0,0,0,0,0,0,0,0,0,0,0,0,0],"sum_hessian":[4E1,1.9E1,2.1E1,1.3E1,6E0,1.1E1,1E1,7E0,6E0,3E0,3E0,6E0,5E0,4E0,6E0],"tree_param":{"num_deleted":"0","num_feature":"30","num_nodes":"15","size_leaf_vector":"1"}},{"base_weights":[3.1279437E-2,1.13954775E-1,-7.044752E-2,1.1888146E-2,2.2421946E-1,-1.572528E-1,6.8566345E-2,1.0737254E-2,-1.623614E-2,2.7668986E-2,6.322376E-3,-2.3063345E-2,-8.3932106E-4,1.9190164E-2,-4.381516E-3],"categories":[],"categories_nodes":[],"categories_segments":[],"categories_sizes":[],"default_left":[0,0,0,0,0,0,0,0,0,0,0,0,0,0,0],"id":50,"left_children":[1,3,5,7,9,11,13,-1,-1,-1,-1,-1,-1,-1,-1],"loss_changes":[3.528506E-1,2.5618434E-1,2.4005786E-1,2.337286E-1,7.54292E-2,1.291452E-1,1.19293034E-1,0E0,0E0,0E0,0E0,0E0,0E0,0E0,0E0],"parents":[2147483647,0,0,1,1,2,2,3,3,4,4,5,5,6,6],"right_children":[2,4,6,8,10,12,14,-1,-1,-1,-1,-1,-1,-1,-1],"split_conditions":[1E0,2.4E1,1E0,1E0,1E0,1E0,1E0,1.0737254E-2,-1.623614E-2,2.7668986E-2,6.322376E-3,-2.3063345E-2,-8.3932106E-4,1.9190164E-2,-4.381516E-3],"split_indices":[12,0,2,27,8,8,23,0,0,0,0,0,0,0,0],"split_type":[0,0,0,0,0,0,0,0,0,0,0,0,0,0,0],"sum_hessian":[4E1,2.2E1,1.8E1,1.2E1,1E1,1.1E1,7E0,8E0,4E0,7E0,3E0,7E0,4E0,3E0,4E0],"tree_param":{"num_deleted":"0","num_feature":"30","num_nodes":"15","size_leaf_vector":"1"}},{"base_weights":[-2.76122E-2,4.898517E-2,-1.3863114E-1,1.0085821E-1,-9.8810986E-2,-1.090716E-2,-2.073072E-1,-9.048314E-3,1.579148E-2,-1.4862865E-2,-2.429057E-3,5.329753E-3,-1.1427925E-2,-2.6252914E-2,2.7460994E-3],"categories":[],"categories_nodes":[],"categories_segments":[],"categories_sizes":[],"default_left":[0,0,0,0,0,0,0,0,0,0,0,0,0,0,0],"id":51,"left_children":[1,3,5,7,9,11,13,-1,-1,-1,-1,-1,-1,-1,-1],"loss_changes":[3.55445E-1,2.0163183E-1,1.4685571E-1,2.2171697E-1,2.237676E-2,5.2549608E-2,1.4981717E-1,0E0,0E0,0E0,0E0,0E0,0E0,0E0,0E0],"parents":[2147483647,0,0,1,1,2,2,3,3,4,4,5,5,6,6],"right_children":[2,4,6,8,10,12,14,-1,-1,-1,-1,-1,-1,-1,-1],"split_conditions":[1E0,3.6E1,1E0,4E0,1E0,2.3E1,4.1E1,-9.048314E-3,1.579148E-2,-1.4862865E-2,-2.429057E-3,5.329753E-3,-1.1427925E-2,-2.6252914E-2,2.7460994E-3],"split_indices":[20,0,23,0,7,0,0,0,0,0,0,0,0,0,0],"split_type":[0,0,0,0,0,0,0,0,0,0,0,0,0,0,0],"sum_hessian":[4E1,2.4E1,1.6E1,1.8E1,6E0,6E0,1E1,4E0,1.4E1,3E0,3E0,4E0,2E0,8E0,2E0],"tree_param":{"num_deleted":"0","num_feature":"30","num_nodes":"15","size_leaf_vector":"1"}},{"base_weights":[-5.8979634E-2,-1.3661882E-1,3.8108844E-2,-2.5275862E-1,-2.7837547E-2,1.3015047E-1,-5.7743665E-2,-3.1508114E-2,-1.48309665E-2,-1.970234E-2,1.4532508E-2,2.478358E-2,-3.7102026E-3,3.4111831E-3,-2.0405486E-2],"categories":[],"categories_nodes":[],"categories_segments":[],"categories_sizes":[],"default_left":[0,0,0,0,0,0,0,0,0,0,0,0,0,0,0],"id":52,"left_children":[1,3,5,7,9,11,13,-1,-1,-1,-1,-1,-1,-1,-1],"loss_changes":[3.142591E-1,2.8354204E-1,1.7514136E-1,2.4875164E-2,4.094891E-1,2.0602685E-1,1.4135557E-1,0E0,0E0,0E0,0E0,0E0,0E0,0E0,0E0],"parents":[2147483647,0,0,1,1,2,2,3,3,4,4,5,5,6,6],"right_children":[2,4,6,8,10,12,14,-1,-1,-1,-1,-1,-1,-1,-1],"split_conditions":[1E0,1E0,1E0,1E0,1E0,1E0,1E0,-3.1508114E-2,-1.48309665E-2,-1.970234E-2,1.4532508E-2,2.478358E-2,-3.7102026E-3,3.4111831E-3,-2.0405486E-2],"split_indices":[12,26,15,3,18,13,9,0,0,0,0,0,0,0,0],"split_type":[0,0,0,0,0,0,0,0,0,0,0,0,0,0,0],"sum_hessian":[4E1,2.2E1,1.8E1,1E1,1.2E1,9E0,9E0,5E0,5E0,6E0,6E0,5E0,4E0,6E0,3E0],"tree_param":{"num_deleted":"0","num_feature":"30","num_nodes":"15","size_leaf_vector":"1"}},{"base_weights":[2.092009E-2,1.2597455E-1,-6.677359E-2,2.0704028E-1,-8.417461E-2,-1.5924412E-1,6.936249E-2,2.3015227E-2,4.557896E-3,-1.629888E-2,4.896918E-3,-2.7925948E-2,-3.432516E-3,-3.3774641E-3,1.7925456E-2],"categories":[],"categories_nodes":[],"categories_segments":[],"categories_sizes":[],"default_left":[0,0,0,0,0,0,0,0,0,0,0,0,0,0,0],"id":53,"left_children":[1,3,5,7,9,11,13,-1,-1,-1,-1,-1,-1,-1,-1],"loss_changes":[3.8612887E-1,3.4110957E-1,3.005828E-1,4.175353E-2,7.094315E-2,2.0030507E-1,1.1939378E-1,0E0,0E0,0E0,0E0,0E0,0E0,0E0,0E0],"parents":[2147483647,0,0,1,1,2,2,3,3,4,4,5,5,6,6],"right_children":[2,4,6,8,10,12,14,-1,-1,-1,-1,-1,-1,-1,-1],"split_conditions":[1E0,1E0,1E0,1E0,1E0,1E0,1.5E1,2.3015227E-2,4.557896E-3,-1.629888E-2,4.896918E-3,-2.7925948E-2,-3.432516E-3,-3.3774641E-3,1.7925456E-2],"split_indices":[4,20,7,14,29,2,0,0,0,0,0,0,0,0,0],"split_type":[0,0,0,0,0,0,0,0,0,0,0,0,0,0,0],"sum_hessian":[4E1,1.8E1,2.2E1,1.3E1,5E0,1.3E1,9E0,1.1E1,2E0,3E0,2E0,6E0,7E0,5E0,4E0],"tree_param":{"num_deleted":"0","num_feature":"30","num_nodes":"15","size_leaf_vector":"1"}},{"base_weights":[1.8579228E-2,1.15147695E-1,-1.11210905E-1,1.6947752E-1,-1.2520118E-1,-2.2120629E-1,2.3362964E-2,5.7118395E-3,2.7612481E-2,-1.6371737E-3,-1.922969E-2,-3.18708E-2,-1.0308716E-2,1.8059831E-2,-2.1833079E-2],"categories":[],"categories_nodes":[],"categories_segments":[],"categories_sizes":[],"default_left":[0,0,0,0,0,0,0,0,0,0,0,0,0,0,0],"id":54,"left_children":[1,3,5,7,9,11,13,-1,-1,-1,-1,-1,-1,-1,-1],"loss_changes":[5.2668464E-1,3.346135E-1,2.7161312E-1,2.238841E-1,3.3361718E-2,8.231342E-2,3.8145533E-1,0E0,0E0,0E0,0E0,0E0,0E0,0E0,0E0],"parents":[2147483647,0,0,1,1,2,2,3,3,4,4,5,5,6,6],"right_children":[2,4,6,8,10,12,14,-1,-1,-1,-1,-1,-1,-1,-1],"split_conditions":[1E0,4.2E1,1E0,1E0,1E0,1E0,1E0,5.7118395E-3,2.7612481E-2,-1.6371737E-3,-1.922969E-2,-3.18708E-2,-1.0308716E-2,1.8059831E-2,-2.1833079E-2],"split_indices":[2,0,9,14,13,6,16,0,0,0,0,0,0,0,0],"split_type":[0,0,0,0,0,0,0,0,0,0,0,0,0,0,0],"sum_hessian":[4E1,2.3E1,1.7E1,1.9E1,4E0,9E0,8E0,1E1,9E0,2E0,2E0,4E0,5E0,5E0,3E0],"tree_param":{"num_deleted":"0","num_feature":"30","num_nodes":"15","size_leaf_vector":"1"}},{"base_weights":[-4.9761556E-2,-1.4596277E-1,1.0967551E-1,2.0705668E-2,-1.6836582E-1,2.3775384E-1,9.053135E-3,-1.1318767E-2,-2.538839E-2,2.7524386E-2,6.4068736E-4,-1.2016281E-2,2.3291776E-2],"categories":[],"categories_nodes":[],"categories_segments":[],"categories_sizes":[],"default_left":[0,0,0,0,0,0,0,0,0,0,0,0,0],"id":55,"left_children":[1,3,5,-1,7,9,11,-1,-1,-1,-1,-1,-1],"loss_changes":[6.4486814E-1,2.4048775E-1,2.0404834E-1,0E0,8.923161E-2,5.8948934E-2,3.1725684E-1,0E0,0E0,0E0,0E0,0E0,0E0],"parents":[2147483647,0,0,1,1,2,2,4,4,5,5,6,6],"right_children":[2,4,6,-1,8,10,12,-1,-1,-1,-1,-1,-1],"split_conditions":[1E0,1E0,1E0,2.0705668E-2,1E0,1E0,1E0,-1.1318767E-2,-2.538839E-2,2.7524386E-2,6.4068736E-4,-1.2016281E-2,2.3291776E-2],"split_indices":[8,0,13,0,16,23,19,0,0,0,0,0,0],"split_type":[0,0,0,0,0,0,0,0,0,0,0,0,0],"sum_hessian":[4E1,2.5E1,1.5E1,1E0,2.4E1,6E0,9E0,1.6E1,8E0,5E0,1E0,6E0,3E0],"tree_param":{"num_deleted":"0","num_feature":"30","num_nodes":"13","size_leaf_vector":"1"}},{"base_weights":[8.764165E-3,8.904446E-2,-1.2223907E-1,2.53003E-1,-2.924231E-2,-1.8823645E-1,1.9129286E-2,2.7170872E-2,3.2972842E-3,-1.3576235E-2,9.424803E-3,-2.4597097E-2,-6.9760815E-3,-1.9616652E-2,1.01421755E-2],"categories":[],"categories_nodes":[],"categories_segments":[],"categories_sizes":[],"default_left":[0,0,0,0,0,0,0,0,0,0,0,0,0,0,0],"id":56,"left_children":[1,3,5,7,9,11,13,-1,-1,-1,-1,-1,-1,-1,-1],"loss_changes":[4.420808E-1,5.116457E-1,1.5287985E-1,3.6315084E-2,2.2326247E-1,5.8082342E-2,1.2619887E-1,0E0,0E0,0E0,0E0,0E0,0E0,0E0,0E0],"parents":[2147483647,0,0,1,1,2,2,3,3,4,4,5,5,6,6],"right_children":[2,4,6,8,10,12,14,-1,-1,-1,-1,-1,-1,-1,-1],"split_conditions":[1E0,1E0,1E0,1E0,1E0,1E0,1E0,2.7170872E-2,3.2972842E-3,-1.3576235E-2,9.424803E-3,-2.4597097E-2,-6.9760815E-3,-1.9616652E-2,1.01421755E-2],"split_indices":[7,17,20,29,15,22,10,0,0,0,0,0,0,0,0],"split_type":[0,0,0,0,0,0,0,0,0,0,0,0,0,0,0],"sum_hessian":[4E1,2.5E1,1.5E1,1E1,1.5E1,1E1,5E0,9E0,1E0,8E0,7E0,6E0,4E0,1E0,4E0],"tree_param":{"num_deleted":"0","num_feature":"30","num_nodes":"15","size_leaf_vector":"1"}},{"base_weights":[-1.7550714E-2,1.758918E-1,-5.5737767E-2,2.4015138E-2,2.3183944E-2,1.7993143E-2,-1.444178E-1,-6.4446675E-3,1.0046938E-2,9.654984E-3,-8.874835E-3,-2.0594014E-2,3.2119357E-3],"categories":[],"categories_nodes":[],"categories_segments":[],"categories_sizes":[],"default_left":[0,0,0,0,0,0,0,0,0,0,0,0,0],"id":57,"left_children":[1,3,5,7,-1,9,11,-1,-1,-1,-1,-1,-1],"loss_changes":[3.126708E-1,5.3912327E-2,2.314446E-1,2.676476E-2,0E0,1.7627382E-1,1.803903E-1,0E0,0E0,0E0,0E0,0E0,0E0],"parents":[2147483647,0,0,1,1,2,2,3,3,5,5,6,6],"right_children":[2,4,6,8,-1,10,12,-1,-1,-1,-1,-1,-1],"split_conditions":[6E0,1E0,1E0,3E0,2.3183944E-2,1E0,1E0,-6.4446675E-3,1.0046938E-2,9.654984E-3,-8.874835E-3,-2.0594014E-2,3.2119357E-3],"split_indices":[0,17,1,0,0,24,16,0,0,0,0,0,0],"split_type":[0,0,0,0,0,0,0,0,0,0,0,0,0],"sum_hessian":[4E1,6E0,3.4E1,2E0,4E0,1.9E1,1.5E1,1E0,1E0,1.1E1,8E0,1.1E1,4E0],"tree_param":{"num_deleted":"0","num_feature":"30","num_nodes":"13","size_leaf_vector":"1"}},{"base_weights":[2.4084216E-2,-4.78133E-2,1.0985046E-1,3.6751155E-2,-2.1096554E-1,5.4902364E-2,2.1975428E-2,-4.888067E-3,1.8761765E-2,1.2318194E-2,-2.7629832E-2,1.8054191E-2,-3.49576E-3],"categories":[],"categories_nodes":[],"categories_segments":[],"categories_sizes":[],"default_left":[0,0,0,0,0,0,0,0,0,0,0,0,0],"id":58,"left_children":[1,3,5,7,9,11,-1,-1,-1,-1,-1,-1,-1],"loss_changes":[2.580739E-1,3.250815E-1,1.02676064E-1,2.1587442E-1,2.086812E-1,1.643708E-1,0E0,0E0,0E0,0E0,0E0,0E0,0E0],"parents":[2147483647,0,0,1,1,2,2,3,3,4,4,5,5],"right_children":[2,4,6,8,10,12,-1,-1,-1,-1,-1,-1,-1],"split_conditions":[1E0,1E0,1E0,1E0,2E0,1E0,2.1975428E-2,-4.888067E-3,1.8761765E-2,1.2318194E-2,-2.7629832E-2,1.8054191E-2,-3.49576E-3],"split_indices":[19,24,2,11,0,18,0,0,0,0,0,0,0],"split_type":[0,0,0,0,0,0,0,0,0,0,0,0,0],"sum_hessian":[4E1,2.2E1,1.8E1,1.5E1,7E0,1.3E1,5E0,1E1,5E0,1E0,6E0,5E0,8E0],"tree_param":{"num_deleted":"0","num_feature":"30","num_nodes":"13","size_leaf_vector":"1"}},{"base_weights":[2.511231E-4,-1.000963E-1,1.00586586E-1,-1.3197096E-2,-2.1449555E-1,-4.3608952E-2,1.7579928E-1,-2.7634501E-2,9.338178E-3,-2.7133388E-2,-1.0374278E-3,7.76024E-3,-1.8422091E-2,2.380496E-2,1.6138757E-3],"categories":[],"categories_nodes":[],"categories_segments":[],"categories_sizes":[],"default_left":[0,0,0,0,0,0,0,0,0,0,0,0,0,0,0],"id":59,"left_children":[1,3,5,7,9,11,13,-1,-1,-1,-1,-1,-1,-1,-1],"loss_changes":[4.2287293E-1,2.0593457E-1,2.3541847E-1,3.9040372E-1,1.01602286E-1,1.506461E-1,1.3530308E-1,0E0,0E0,0E0,0E0,0E0,0E0,0E0,0E0],"parents":[2147483647,0,0,1,1,2,2,3,3,4,4,5,5,6,6],"right_children":[2,4,6,8,10,12,14,-1,-1,-1,-1,-1,-1,-1,-1],"split_conditions":[1E0,2E1,1E0,6E0,1E0,1E0,1E0,-2.7634501E-2,9.338178E-3,-2.7133388E-2,-1.0374278E-3,7.76024E-3,-1.8422091E-2,2.380496E-2,1.6138757E-3],"split_indices":[3,0,23,0,20,19,25,0,0,0,0,0,0,0,0],"split_type":[0,0,0,0,0,0,0,0,0,0,0,0,0,0,0],"sum_hessian":[4E1,2E1,2E1,1.2E1,8E0,7E0,1.3E1,3E0,9E0,6E0,2E0,4E0,3E0,9E0,4E0],"tree_param":{"num_deleted":"0","num_feature":"30","num_nodes":"15","size_leaf_vector":"1"}},{"base_weights":[-4.3587353E-2,4.925277E-2,-1.11401305E-1,2.2715354E-2,-1.7801274E-2,-1.7240533E-1,3.215742E-2,-1.3032478E-2,8.288196E-3,-8.193419E-3,-2.1430468E-2,1.8291991E-2,-1.6433505E-2],"categories":[],"categories_nodes":[],"categories_segments":[],"categories_sizes":[],"default_left":[0,0,0,0,0,0,0,0,0,0,0,0,0],"id":60,"left_children":[1,3,5,-1,7,9,11,-1,-1,-1,-1,-1,-1],"loss_changes":[2.6361692E-1,2.18765E-1,2.1572798E-1,0E0,1.6941081E-1,4.688269E-2,2.670497E-1,0E0,0E0,0E0,0E0,0E0,0E0],"parents":[2147483647,0,0,1,1,2,2,4,4,5,5,6,6],"right_children":[2,4,6,-1,8,10,12,-1,-1,-1,-1,-1,-1],"split_conditions":[1E0,1E0,1E0,2.2715354E-2,1E0,1E0,1E0,-1.3032478E-2,8.288196E-3,-8.193419E-3,-2.1430468E-2,1.8291991E-2,-1.6433505E-2],"split_indices":[6,18,29,0,24,23,19,0,0,0,0,0,0],"split_type":[0,0,0,0,0,0,0,0,0,0,0,0,0],"sum_hessian":[4E1,1.7E1,2.3E1,4E0,1.3E1,1.6E1,7E0,6E0,7E0,6E0,1E1,4E0,3E0],"tree_param":{"num_deleted":"0","num_feature":"30","num_nodes":"13","size_leaf_vector":"1"}},{"base_weights":[-4.3110583E-2,-1.0436737E-1,3.3311345E-2,-2.5739735E-2,-2.8041056E-1,-9.1723464E-2,9.807537E-2,-1.0684627E-2,5.822677E-3,-3.0500794E-2,-6.641318E-3,-1.4485632E-2,1.1353681E-2,1.309675E-2,-5.5220905E-3],"categories":[],"categories_nodes":[],"categories_segments":[],"categories_sizes":[],"default_left":[0,0,0,0,0,0,0,0,0,0,0,0,0,0,0],"id":61,"left_children":[1,3,5,7,9,11,13,-1,-1,-1,-1,-1,-1,-1,-1],"loss_changes":[1.9541243E-1,3.1114513E-1,1.6285321E-1,1.2199526E-1,1.658988E-2,9.278896E-2,7.278128E-2,0E0,0E0,0E0,0E0,0E0,0E0,0E0,0E0],"parents":[2147483647,0,0,1,1,2,2,3,3,4,4,5,5,6,6],"right_children":[2,4,6,8,10,12,14,-1,-1,-1,-1,-1,-1,-1,-1],"split_conditions":[1E0,1E0,1E0,1E0,4.1E1,1E0,1E0,-1.0684627E-2,5.822677E-3,-3.0500794E-2,-6.641318E-3,-1.4485632E-2,1.1353681E-2,1.309675E-2,-5.5220905E-3],"split_indices":[27,16,10,17,0,25,2,0,0,0,0,0,0,0,0],"split_type":[0,0,0,0,0,0,0,0,0,0,0,0,0,0,0],"sum_hessian":[4E1,2.2E1,1.8E1,1.6E1,6E0,6E0,1.2E1,8E0,8E0,5E0,1E0,5E0,1E0,1E1,2E0],"tree_param":{"num_deleted":"0","num_feature":"30","num_nodes":"15","size_leaf_vector":"1"}},{"base_weights":[2.949893E-2,-7.2297655E-2,1.12309195E-1,-1.6808194E-1,1.2643814E-2,1.8908092E-1,-2.8122488E-2,-2.2174656E-2,1.3061759E-2,-1.4785913E-2,1.7103946E-2,2.243658E-2,-2.6847075E-3,-2.5328992E-2,7.239533E-3],"categories":[],"categories_nodes":[],"categories_segments":[],"categories_sizes":[],"default_left":[0,0,0,0,0,0,0,0,0,0,0,0,0,0,0],"id":62,"left_children":[1,3,5,7,9,11,13,-1,-1,-1,-1,-1,-1,-1,-1],"loss_changes":[3.537416E-1,1.5671027E-1,2.5328463E-1,1.7323041E-1,3.049424E-1,1.2030834E-1,2.2203705E-1,0E0,0E0,0E0,0E0,0E0,0E0,0E0,0E0],"parents":[2147483647,0,0,1,1,2,2,3,3,4,4,5,5,6,6],"right_children":[2,4,6,8,10,12,14,-1,-1,-1,-1,-1,-1,-1,-1],"split_conditions":[1E0,1E0,1E0,4.6E1,2.2E1,4.3E1,1E0,-2.2174656E-2,1.3061759E-2,-1.4785913E-2,1.7103946E-2,2.243658E-2,-2.6847075E-3,-2.5328992E-2,7.239533E-3],"split_indices":[13,22,27,0,0,0,17,0,0,0,0,0,0,0,0],"split_type":[0,0,0,0,0,0,0,0,0,0,0,0,0,0,0],"sum_hessian":[4E1,1.8E1,2.2E1,8E0,1E1,1.4E1,8E0,7E0,1E0,5E0,5E0,1.2E1,2E0,2E0,6E0],"tree_param":{"num_deleted":"0","num_feature":"30","num_nodes":"15","size_leaf_vector":"1"}},{"base_weights":[-3.066249E-2,1.6690718E-1,-5.653238E-2,1.9716268E-2,2.2942573E-3,-2.4362022E-1,-1.2463112E-2,-3.1843968E-2,1.0264828E-2,-1.2827203E-2,6.743052E-3],"categories":[],"categories_nodes":[],"categories_segments":[],"categories_sizes":[],"default_left":[0,0,0,0,0,0,0,0,0,0,0],"id":63,"left_children":[1,3,5,-1,-1,7,9,-1,-1,-1,-1],"loss_changes":[2.1899095E-1,1.7255187E-2,3.0202216E-1,0E0,0E0,2.1404064E-1,2.954737E-1,0E0,0E0,0E0,0E0],"parents":[2147483647,0,0,1,1,2,2,5,5,6,6],"right_children":[2,4,6,-1,-1,8,10,-1,-1,-1,-1],"split_conditions":[4E0,1E0,1E1,1.9716268E-2,2.2942573E-3,1E0,1E0,-3.1843968E-2,1.0264828E-2,-1.2827203E-2,6.743052E-3],"split_indices":[0,14,0,0,0,7,18,0,0,0,0],"split_type":[0,0,0,0,0,0,0,0,0,0,0],"sum_hessian":[4E1,4E0,3.6E1,3E0,1E0,6E0,3E1,5E0,1E0,1.2E1,1.8E1],"tree_param":{"num_deleted":"0","num_feature":"30","num_nodes":"11","size_leaf_vector":"1"}},{"base_weights":[4.0726952E-2,-4.3324903E-2,1.3114765E-1,-1.01929136E-1,3.719309E-2,3.9209288E-2,1.6774914E-1,3.1358877E-3,-1.6465258E-2,2.1477759E-2,-6.9597065E-3,1.127608E-2,-2.010499E-2,5.8692703E-3,2.6842091E-2],"categories":[],"categories_nodes":[],"categories_segments":[],"categories_sizes":[],"default_left":[0,0,0,0,0,0,0,0,0,0,0,0,0,0,0],"id":64,"left_children":[1,3,5,7,9,11,13,-1,-1,-1,-1,-1,-1,-1,-1],"loss_changes":[3.172831E-1,1.0760236E-1,6.0724318E-2,1.1384699E-1,2.0459065E-1,1.4637055E-1,1.379503E-1,0E0,0E0,0E0,0E0,0E0,0E0,0E0,0E0],"parents":[2147483647,0,0,1,1,2,2,3,3,4,4,5,5,6,6],"right_children":[2,4,6,8,10,12,14,-1,-1,-1,-1,-1,-1,-1,-1],"split_conditions":[1E0,1E0,1E0,1E0,1.2E1,1E0,1E0,3.1358877E-3,-1.6465258E-2,2.1477759E-2,-6.9597065E-3,1.127608E-2,-2.010499E-2,5.8692703E-3,2.6842091E-2],"split_indices":[1,15,23,21,0,16,26,0,0,0,0,0,0,0,0],"split_type":[0,0,0,0,0,0,0,0,0,0,0,0,0,0,0],"sum_hessian":[4E1,2.1E1,1.9E1,1.2E1,9E0,6E0,1.3E1,4E0,8E0,3E0,6E0,5E0,1E0,7E0,6E0],"tree_param":{"num_deleted":"0","num_feature":"30","num_nodes":"15","size_leaf_vector":"1"}},{"base_weights":[-3.9646897E-2,4.2759985E-2,-1.1276011E-1,-3.6494475E-2,1.9516034E-1,-2.1228554E-2,-1.8726736E-1,6.2584854E-3,-2.2735424E-2,2.646288E-2,1.4326115E-3,1.1982058E-2,-1.1894529E-2,-2.392832E-2,-6.6588568E-3],"categories":[],"categories_nodes":[],"categories_segments":[],"categories_sizes":[],"default_left":[0,0,0,0,0,0,0,0,0,0,0,0,0,0,0],"id":65,"left_children":[1,3,5,7,9,11,13,-1,-1,-1,-1,-1,-1,-1,-1],"loss_changes":[2.5184792E-1,2.4869044E-1,1.4605942E-1,2.7897254E-1,8.414483E-2,1.6586356E-1,5.939296E-2,0E0,0E0,0E0,0E0,0E0,0E0,0E0,0E0],"parents":[2147483647,0,0,1,1,2,2,3,3,4,4,5,5,6,6],"right_children":[2,4,6,8,10,12,14,-1,-1,-1,-1,-1,-1,-1,-1],"split_conditions":[1E0,1E0,1E0,1E0,1E0,1E0,1E0,6.2584854E-3,-2.2735424E-2,2.646288E-2,1.4326115E-3,1.1982058E-2,-1.1894529E-2,-2.392832E-2,-6.6588568E-3],"split_indices":[15,29,21,19,5,18,1,0,0,0,0,0,0,0,0],"split_type":[0,0,0,0,0,0,0,0,0,0,0,0,0,0,0],"sum_hessian":[4E1,1.9E1,2.1E1,1.3E1,6E0,1E1,1.1E1,9E0,4E0,4E0,2E0,4E0,6E0,7E0,4E0],"tree_param":{"num_deleted":"0","num_feature":"30","num_nodes":"15","size_leaf_vector":"1"}},{"base_weights":[3.1666096E-2,-4.58155E-2,9.429585E-2,7.938188E-2,-1.9374391E-1,1.5847833E-1,-2.315227E-2,1.2334772E-2,-1.8013826E-2,-6.3683414E-3,-2.8505564E-2,2.2783635E-2,-2.5805002E-3,-1.6521333E-2,1.9572737E-2],"categories":[],"categories_nodes":[],"categories_segments":[],"categories_sizes":[],"default_left":[0,0,0,0,0,0,0,0,0,0,0,0,0,0,0],"id":66,"left_children":[1,3,5,7,9,11,13,-1,-1,-1,-1,-1,-1,-1,-1],"loss_changes":[2.0327899E-1,3.6726454E-1,1.7704573E-1,1.4772984E-1,8.873108E-2,1.9760227E-1,3.121852E-1,0E0,0E0,0E0,0E0,0E0,0E0,0E0,0E0],"parents":[2147483647,0,0,1,1,2,2,3,3,4,4,5,5,6,6],"right_children":[2,4,6,8,10,12,14,-1,-1,-1,-1,-1,-1,-1,-1],"split_conditions":[1E0,1E0,1E0,3.6E1,1.1E1,1E0,1E0,1.2334772E-2,-1.8013826E-2,-6.3683414E-3,-2.8505564E-2,2.2783635E-2,-2.5805002E-3,-1.6521333E-2,1.9572737E-2],"split_indices":[28,12,11,0,0,29,23,0,0,0,0,0,0,0,0],"split_type":[0,0,0,0,0,0,0,0,0,0,0,0,0,0,0],"sum_hessian":[4E1,1.8E1,2.2E1,1E1,8E0,1.4E1,8E0,9E0,1E0,4E0,4E0,1E1,4E0,5E0,3E0],"tree_param":{"num_deleted":"0","num_feature":"30","num_nodes":"15","size_leaf_vector":"1"}},{"base_weights":[2.688645E-2,6.5036416E-2,-2.0649444E-1,1.2118345E-1,-3.185059E-2,-2.3931328E-2,-2.1200122E-3,1.352003E-3,1.8942995E-2,-1.8639253E-2,1.4931885E-2],"categories":[],"categories_nodes":[],"categories_segments":[],"categories_sizes":[],"default_left":[0,0,0,0,0,0,0,0,0,0,0],"id":67,"left_children":[1,3,5,7,9,-1,-1,-1,-1,-1,-1],"loss_changes":[3.784721E-1,1.9969681E-1,3.1413406E-2,1.6643482E-1,4.1980776E-1,0E0,0E0,0E0,0E0,0E0,0E0],"parents":[2147483647,0,0,1,1,2,2,3,3,4,4],"right_children":[2,4,6,8,10,-1,-1,-1,-1,-1,-1],"split_conditions":[4.3E1,1E0,1E0,1E0,1E0,-2.3931328E-2,-2.1200122E-3,1.352003E-3,1.8942995E-2,-1.8639253E-2,1.4931885E-2],"split_indices":[0,7,26,10,19,0,0,0,0,0,0],"split_type":[0,0,0,0,0,0,0,0,0,0,0],"sum_hessian":[4E1,3.5E1,5E0,2.2E1,1.3E1,4E0,1E0,9E0,1.3E1,7E0,6E0],"tree_param":{"num_deleted":"0","num_feature":"30","num_nodes":"11","size_leaf_vector":"1"}},{"base_weights":[8.704353E-2,1.955355E-1,1.6931416E-2,2.2699219E-1,-1.3815741E-2,-4.4983584E-2,2.3081201E-1,7.469064E-3,2.7558452E-2,-1.2630208E-2,2.6530463E-3,2.6412392E-2,3.2126203E-3],"categories":[],"categories_nodes":[],"categories_segments":[],"categories_sizes":[],"default_left":[0,0,0,0,0,0,0,0,0,0,0,0,0],"id":68,"left_children":[1,3,5,7,-1,9,11,-1,-1,-1,-1,-1,-1],"loss_changes":[3.0855998E-1,1.993106E-1,3.5468557E-1,9.042674E-2,0E0,1.2547454E-1,3.1226337E-2,0E0,0E0,0E0,0E0,0E0,0E0],"parents":[2147483647,0,0,1,1,2,2,3,3,5,5,6,6],"right_children":[2,4,6,8,-1,10,12,-1,-1,-1,-1,-1,-1],"split_conditions":[1E0,4.6E1,4.1E1,1E1,-1.3815741E-2,1E0,4.9E1,7.469064E-3,2.7558452E-2,-1.2630208E-2,2.6530463E-3,2.6412392E-2,3.2126203E-3],"split_indices":[10,0,0,0,0,1,0,0,0,0,0,0,0],"split_type":[0,0,0,0,0,0,0,0,0,0,0,0,0],"sum_hessian":[4E1,1.5E1,2.5E1,1.4E1,1E0,2E1,5E0,4E0,1E1,9E0,1.1E1,4E0,1E0],"tree_param":{"num_deleted":"0","num_feature":"30","num_nodes":"13","size_leaf_vector":"1"}},{"base_weights":[2.0661042E-4,6.500007E-2,-7.823846E-2,1.5415606E-1,-1.5439614E-2,-8.953237E-3,-1.9573408E-1,1.842306E-3,1.8227195E-2,-1.4628281E-2,8.4622735E-3,9.602736E-3,-6.6280984E-3,-2.2215324E-2,-8.645749E-3],"categories":[],"categories_nodes":[],"categories_segments":[],"categories_sizes":[],"default_left":[0,0,0,0,0,0,0,0,0,0,0,0,0,0,0],"id":69,"left_children":[1,3,5,7,9,11,13,-1,-1,-1,-1,-1,-1,-1,-1],"loss_changes":[2.1347736E-1,1.6732876E-1,1.5292105E-1,3.862074E-2,1.8258105E-1,8.46027E-2,1.0021627E-3,0E0,0E0,0E0,0E0,0E0,0E0,0E0,0E0],"parents":[2147483647,0,0,1,1,2,2,3,3,4,4,5,5,6,6],"right_children":[2,4,6,8,10,12,14,-1,-1,-1,-1,-1,-1,-1,-1],"split_conditions":[1E0,1E0,1E0,4E0,1E0,1E0,1E0,1.842306E-3,1.8227195E-2,-1.4628281E-2,8.4622735E-3,9.602736E-3,-6.6280984E-3,-2.2215324E-2,-8.645749E-3],"split_indices":[12,28,11,0,18,10,2,0,0,0,0,0,0,0,0],"split_type":[0,0,0,0,0,0,0,0,0,0,0,0,0,0,0],"sum_hessian":[4E1,2.2E1,1.8E1,1E1,1.2E1,1.2E1,6E0,2E0,8E0,5E0,7E0,4E0,8E0,4E0,2E0],"tree_param":{"num_deleted":"0","num_feature":"30","num_nodes":"15","size_leaf_vector":"1"}},{"base_weights":[-7.142516E-2,-1.4856072E-1,3.5390303E-2,-7.70714E-2,-2.591461E-2,1.393911E-1,-6.1749447E-2,-1.6345603E-2,2.2294654E-2,-5.0592753E-3,2.4281515E-2,-1.3585977E-2,1.5646124E-2],"categories":[],"categories_nodes":[],"categories_segments":[],"categories_sizes":[],"default_left":[0,0,0,0,0,0,0,0,0,0,0,0,0],"id":70,"left_children":[1,3,5,7,-1,9,11,-1,-1,-1,-1,-1,-1],"loss_changes":[3.4306765E-1,1.6976345E-1,1.9045432E-1,4.5111296E-1,0E0,1.8912475E-1,1.8297344E-1,0E0,0E0,0E0,0E0,0E0,0E0],"parents":[2147483647,0,0,1,1,2,2,3,3,5,5,6,6],"right_children":[2,4,6,8,-1,10,12,-1,-1,-1,-1,-1,-1],"split_conditions":[1E0,3.3E1,1E0,2.8E1,-2.591461E-2,1E0,1E0,-1.6345603E-2,2.2294654E-2,-5.0592753E-3,2.4281515E-2,-1.3585977E-2,1.5646124E-2],"split_indices":[14,0,16,0,0,23,12,0,0,0,0,0,0],"split_type":[0,0,0,0,0,0,0,0,0,0,0,0,0],"sum_hessian":[4E1,2.3E1,1.7E1,1.5E1,8E0,8E0,9E0,1.2E1,3E0,3E0,5E0,7E0,2E0],"tree_param":{"num_deleted":"0","num_feature":"30","num_nodes":"13","size_leaf_vector":"1"}},{"base_weights":[-5.033003E-2,-1.3377202E-1,2.0788569E-2,-1.939416E-1,-2.679617E-2,-7.75395E-2,1.3510461E-1,-2.6733628E-2,-1.3977266E-2,-1.4060884E-2,2.0976122E-2,7.677095E-4,-2.1542149E-2,1.4900409E-2,-1.9451231E-4],"categories":[],"categories_nodes":[],"categories_segments":[],"categories_sizes":[],"default_left":[0,0,0,0,0,0,0,0,0,0,0,0,0,0,0],"id":71,"left_children":[1,3,5,7,9,11,13,-1,-1,-1,-1,-1,-1,-1,-1],"loss_changes":[2.460863E-1,1.1710024E-1,2.6900688E-1,1.034224E-2,2.4488011E-1,1.5440166E-1,2.124399E-2,0E0,0E0,0E0,0E0,0E0,0E0,0E0,0E0],"parents":[2147483647,0,0,1,1,2,2,3,3,4,4,5,5,6,6],"right_children":[2,4,6,8,10,12,14,-1,-1,-1,-1,-1,-1,-1,-1],"split_conditions":[1E0,1E0,1E0,6E0,1E0,1E0,4.9E1,-2.6733628E-2,-1.3977266E-2,-1.4060884E-2,2.0976122E-2,7.677095E-4,-2.1542149E-2,1.4900409E-2,-1.9451231E-4],"split_indices":[28,9,4,0,25,29,0,0,0,0,0,0,0,0,0],"split_type":[0,0,0,0,0,0,0,0,0,0,0,0,0,0,0],"sum_hessian":[4E1,1.8E1,2.2E1,1.1E1,7E0,1.2E1,1E1,3E0,8E0,5E0,2E0,8E0,4E0,9E0,1E0],"tree_param":{"num_deleted":"0","num_feature":"30","num_nodes":"15","size_leaf_vector":"1"}},{"base_weights":[1.9110369E-2,1.1732425E-1,-4.8439484E-2,-1.2321564E-2,1.5761061E-1,5.5694174E-2,-1.4884703E-1,2.1626705E-3,2.234399E-2,-3.8959538E-3,1.7261676E-2,-4.855476E-3,-2.996037E-2],"categories":[],"categories_nodes":[],"categories_segments":[],"categories_sizes":[],"default_left":[0,0,0,0,0,0,0,0,0,0,0,0,0],"id":72,"left_children":[1,3,5,-1,7,9,11,-1,-1,-1,-1,-1,-1],"loss_changes":[2.7769077E-1,1.8415822E-1,2.6968503E-1,0E0,1.2944356E-1,1.5059812E-1,1.8200934E-1,0E0,0E0,0E0,0E0,0E0,0E0],"parents":[2147483647,0,0,1,1,2,2,4,4,5,5,6,6],"right_children":[2,4,6,-1,8,10,12,-1,-1,-1,-1,-1,-1],"split_conditions":[1E0,2E0,1E0,-1.2321564E-2,1E0,1E0,1E0,2.1626705E-3,2.234399E-2,-3.8959538E-3,1.7261676E-2,-4.855476E-3,-2.996037E-2],"split_indices":[21,0,19,0,15,27,29,0,0,0,0,0,0],"split_type":[0,0,0,0,0,0,0,0,0,0,0,0,0],"sum_hessian":[4E1,1.6E1,2.4E1,2E0,1.4E1,1.2E1,1.2E1,5E0,9E0,7E0,5E0,8E0,4E0],"tree_param":{"num_deleted":"0","num_feature":"30","num_nodes":"13","size_leaf_vector":"1"}},{"base_weights":[5.4472876E-3,7.537207E-2,-1.0852093E-1,1.67843E-1,-1.5877513E-2,5.3552143E-2,-1.500418E-1,2.793496E-2,3.235882E-3,8.656098E-3,-1.035265E-2,-1.5609324E-3,1.3051827E-2,-2.617499E-2,-7.131046E-3],"categories":[],"categories_nodes":[],"categories_segments":[],"categories_sizes":[],"default_left":[0,0,0,0,0,0,0,0,0,0,0,0,0,0,0],"id":73,"left_children":[1,3,5,7,9,11,13,-1,-1,-1,-1,-1,-1,-1,-1],"loss_changes":[3.3491677E-1,2.220512E-1,1.1570571E-1,1.873565E-1,1.3466215E-1,2.3329664E-2,9.5668554E-2,0E0,0E0,0E0,0E0,0E0,0E0,0E0,0E0],"parents":[2147483647,0,0,1,1,2,2,3,3,4,4,5,5,6,6],"right_children":[2,4,6,8,10,12,14,-1,-1,-1,-1,-1,-1,-1,-1],"split_conditions":[1E0,1E0,7E0,1E0,1E0,5E0,1E0,2.793496E-2,3.235882E-3,8.656098E-3,-1.035265E-2,-1.5609324E-3,1.3051827E-2,-2.617499E-2,-7.131046E-3],"split_indices":[8,28,0,17,18,0,18,0,0,0,0,0,0,0,0],"split_type":[0,0,0,0,0,0,0,0,0,0,0,0,0,0,0],"sum_hessian":[4E1,2.5E1,1.5E1,1.2E1,1.3E1,3E0,1.2E1,6E0,6E0,6E0,7E0,2E0,1E0,4E0,8E0],"tree_param":{"num_deleted":"0","num_feature":"30","num_nodes":"15","size_leaf_vector":"1"}},{"base_weights":[2.3534246E-2,-2.5955241E-2,1.20832205E-1,-1.24626614E-1,3.5785887E-2,1.9681375E-1,-5.5297326E-2,-1.9165955E-2,-3.6822576E-3,1.3055992E-2,-5.3089336E-3,2.3037814E-2,-5.26329E-3,1.6314069E-2,-1.5069201E-2],"categories":[],"categories_nodes":[],"categories_segments":[],"categories_sizes":[],"default_left":[0,0,0,0,0,0,0,0,0,0,0,0,0,0,0],"id":74,"left_children":[1,3,5,7,9,11,13,-1,-1,-1,-1,-1,-1,-1,-1],"loss_changes":[2.0056051E-1,1.7503817E-1,1.982396E-1,5.768597E-2,1.5854649E-1,9.5850706E-2,1.287731E-1,0E0,0E0,0E0,0E0,0E0,0E0,0E0,0E0],"parents":[2147483647,0,0,1,1,2,2,3,3,4,4,5,5,6,6],"right_children":[2,4,6,8,10,12,14,-1,-1,-1,-1,-1,-1,-1,-1],"split_conditions":[1E0,1E0,1E0,2.2E1,1E0,3.7E1,1E0,-1.9165955E-2,-3.6822576E-3,1.3055992E-2,-5.3089336E-3,2.3037814E-2,-5.26329E-3,1.6314069E-2,-1.5069201E-2],"split_indices":[29,21,12,0,17,0,3,0,0,0,0,0,0,0,0],"split_type":[0,0,0,0,0,0,0,0,0,0,0,0,0,0,0],"sum_hessian":[4E1,2.7E1,1.3E1,1E1,1.7E1,9E0,4E0,5E0,5E0,8E0,9E0,8E0,1E0,1E0,3E0],"tree_param":{"num_deleted":"0","num_feature":"30","num_nodes":"15","size_leaf_vector":"1"}},{"base_weights":[4.6281252E-2,1.17783576E-1,-5.162636E-2,1.9666924E-1,2.2508813E-2,-1.6900092E-1,5.917339E-2,1.616103E-3,2.7509943E-2,-1.5761169E-2,1.3227052E-2,-2.3683272E-2,-6.7368946E-3,2.0829795E-2,-7.4959295E-3],"categories":[],"categories_nodes":[],"categories_segments":[],"categories_sizes":[],"default_left":[0,0,0,0,0,0,0,0,0,0,0,0,0,0,0],"id":75,"left_children":[1,3,5,7,9,11,13,-1,-1,-1,-1,-1,-1,-1,-1],"loss_changes":[2.9310623E-1,1.7595267E-1,2.4409167E-1,1.7959893E-1,2.5809136E-1,4.608974E-2,2.1563864E-1,0E0,0E0,0E0,0E0,0E0,0E0,0E0,0E0],"parents":[2147483647,0,0,1,1,2,2,3,3,4,4,5,5,6,6],"right_children":[2,4,6,8,10,12,14,-1,-1,-1,-1,-1,-1,-1,-1],"split_conditions":[1E0,1E0,1E0,1E0,1E0,1E0,1E0,1.616103E-3,2.7509943E-2,-1.5761169E-2,1.3227052E-2,-2.3683272E-2,-6.7368946E-3,2.0829795E-2,-7.4959295E-3],"split_indices":[2,14,10,27,9,12,6,0,0,0,0,0,0,0,0],"split_type":[0,0,0,0,0,0,0,0,0,0,0,0,0,0,0],"sum_hessian":[4E1,2.3E1,1.7E1,1.2E1,1.1E1,8E0,9E0,4E0,8E0,4E0,7E0,4E0,4E0,4E0,5E0],"tree_param":{"num_deleted":"0","num_feature":"30","num_nodes":"15","size_leaf_vector":"1"}},{"base_weights":[2.1267105E-3,-4.249677E-2,5.6032676E-2,2.8149564E-2,-1.555188E-1,1.9704719E-1,-4.264639E-2,5.610976E-3,-1.816466E-2,-7.540408E-3,-2.3681117E-2,2.4037752E-2,-5.3132535E-3,5.604289E-3,-1.2114487E-2],"categories":[],"categories_nodes":[],"categories_segments":[],"categories_sizes":[],"default_left":[0,0,0,0,0,0,0,0,0,0,0,0,0,0,0],"id":76,"left_children":[1,3,5,7,9,11,13,-1,-1,-1,-1,-1,-1,-1,-1],"loss_changes":[1.0100555E-1,1.8802339E-1,2.7279177E-1,9.818128E-2,4.0757924E-2,9.9494815E-2,9.97528E-2,0E0,0E0,0E0,0E0,0E0,0E0,0E0,0E0],"parents":[2147483647,0,0,1,1,2,2,3,3,4,4,5,5,6,6],"right_children":[2,4,6,8,10,12,14,-1,-1,-1,-1,-1,-1,-1,-1],"split_conditions":[1E0,1E0,1E0,4.6E1,1E0,4E1,1E0,5.610976E-3,-1.816466E-2,-7.540408E-3,-2.3681117E-2,2.4037752E-2,-5.3132535E-3,5.604289E-3,-1.2114487E-2],"split_indices":[27,22,17,0,8,0,15,0,0,0,0,0,0,0,0],"split_type":[0,0,0,0,0,0,0,0,0,0,0,0,0,0,0],"sum_hessian":[4E1,2.2E1,1.8E1,1.4E1,8E0,7E0,1.1E1,1.3E1,1E0,5E0,3E0,6E0,1E0,5E0,6E0],"tree_param":{"num_deleted":"0","num_feature":"30","num_nodes":"15","size_leaf_vector":"1"}},{"base_weights":[1.9335276E-2,6.31334E-2,-9.177132E-2,-1.0304093E-2,1.9091672E-1,-1.8342906E-1,7.323534E-2,5.8521326E-3,-2.2848463E-2,2.4538454E-2,3.4251926E-3,2.7886466E-3,-2.1760078E-2,-1.3635513E-2,2.5841404E-2],"categories":[],"categories_nodes":[],"categories_segments":[],"categories_sizes":[],"default_left":[0,0,0,0,0,0,0,0,0,0,0,0,0,0,0],"id":77,"left_children":[1,3,5,7,9,11,13,-1,-1,-1,-1,-1,-1,-1,-1],"loss_changes":[2.0531054E-1,2.8348982E-1,1.9492316E-1,3.1369853E-1,8.5460156E-2,6.383625E-2,2.2929452E-1,0E0,0E0,0E0,0E0,0E0,0E0,0E0,0E0],"parents":[2147483647,0,0,1,1,2,2,3,3,4,4,5,5,6,6],"right_children":[2,4,6,8,10,12,14,-1,-1,-1,-1,-1,-1,-1,-1],"split_conditions":[1E0,1E0,1E0,3.1E1,1E0,1E0,1E0,5.8521326E-3,-2.2848463E-2,2.4538454E-2,3.4251926E-3,2.7886466E-3,-2.1760078E-2,-1.3635513E-2,2.5841404E-2],"split_indices":[16,19,29,0,7,21,1,0,0,0,0,0,0,0,0],"split_type":[0,0,0,0,0,0,0,0,0,0,0,0,0,0,0],"sum_hessian":[4E1,2.9E1,1.1E1,1.9E1,1E1,7E0,4E0,1.5E1,4E0,7E0,3E0,1E0,6E0,2E0,2E0],"tree_param":{"num_deleted":"0","num_feature":"30","num_nodes":"15","size_leaf_vector":"1"}},{"base_weights":[-3.2999013E-2,-9.854619E-2,4.8084367E-2,-1.9076306E-1,1.8828474E-3,-2.971083E-2,2.2159244E-1,-2.4097538E-2,-7.227072E-3,1.1523063E-2,-1.3067004E-2,-3.144997E-2,1.1565467E-2,2.6357828E-2,9.174719E-3],"categories":[],"categories_nodes":[],"categories_segments":[],"categories_sizes":[],"default_left":[0,0,0,0,0,0,0,0,0,0,0,0,0,0,0],"id":78,"left_children":[1,3,5,7,9,11,13,-1,-1,-1,-1,-1,-1,-1,-1],"loss_changes":[2.226448E-1,2.1336794E-1,2.630475E-1,5.398184E-2,1.953521E-1,6.1595196E-1,8.527398E-3,0E0,0E0,0E0,0E0,0E0,0E0,0E0,0E0],"parents":[2147483647,0,0,1,1,2,2,3,3,4,4,5,5,6,6],"right_children":[2,4,6,8,10,12,14,-1,-1,-1,-1,-1,-1,-1,-1],"split_conditions":[1E0,1E0,1E0,1E0,1E0,1E0,1E0,-2.4097538E-2,-7.227072E-3,1.1523063E-2,-1.3067004E-2,-3.144997E-2,1.1565467E-2,2.6357828E-2,9.174719E-3],"split_indices":[24,5,22,29,13,28,3,0,0,0,0,0,0,0,0],"split_type":[0,0,0,0,0,0,0,0,0,0,0,0,0,0,0],"sum_hessian":[4E1,2.2E1,1.8E1,1.1E1,1.1E1,1.3E1,5E0,7E0,4E0,6E0,5E0,4E0,9E0,3E0,2E0],"tree_param":{"num_deleted":"0","num_feature":"30","num_nodes":"15","size_leaf_vector":"1"}},{"base_weights":[2.6191982E-2,-6.695169E-2,1.096775E-1,-1.2637918E-1,6.1467823E-2,-8.969684E-3,1.7811659E-1,-2.4004467E-2,2.1578406E-3,-1.3540544E-3,1.2110923E-2,-1.2618554E-2,1.1004011E-2,6.6614137E-3,2.5341665E-2],"categories":[],"categories_nodes":[],"categories_segments":[],"categories_sizes":[],"default_left":[0,0,0,0,0,0,0,0,0,0,0,0,0,0,0],"id":79,"left_children":[1,3,5,7,9,11,13,-1,-1,-1,-1,-1,-1,-1,-1],"loss_changes":[3.2616517E-1,1.6040125E-1,1.8023998E-1,2.4062718E-1,3.2955118E-2,1.3943398E-1,1.00664884E-1,0E0,0E0,0E0,0E0,0E0,0E0,0E0,0E0],"parents":[2147483647,0,0,1,1,2,2,3,3,4,4,5,5,6,6],"right_children":[2,4,6,8,10,12,14,-1,-1,-1,-1,-1,-1,-1,-1],"split_conditions":[1E0,1E0,1E0,1E0,1E0,1E0,1E0,-2.4004467E-2,2.1578406E-3,-1.3540544E-3,1.2110923E-2,-1.2618554E-2,1.1004011E-2,6.6614137E-3,2.5341665E-2],"split_indices":[5,7,26,27,17,12,18,0,0,0,0,0,0,0,0],"split_type":[0,0,0,0,0,0,0,0,0,0,0,0,0,0,0],"sum_hessian":[4E1,1.9E1,2.1E1,1.3E1,6E0,8E0,1.3E1,7E0,6E0,3E0,3E0,4E0,4E0,6E0,7E0],"tree_param":{"num_deleted":"0","num_feature":"30","num_nodes":"15","size_leaf_vector":"1"}},{"base_weights":[2.8624617E-2,-4.171043E-2,1.303747E-1,2.9480815E-2,-1.5144537E-1,2.1457845E-1,-1.1463E-1,1.8853962E-2,-3.925042E-3,-2.2574907E-2,-3.199186E-3,2.6246315E-2,4.1222135E-3,-1.5372346E-2,-3.7326533E-3],"categories":[],"categories_nodes":[],"categories_segments":[],"categories_sizes":[],"default_left":[0,0,0,0,0,0,0,0,0,0,0,0,0,0,0],"id":80,"left_children":[1,3,5,7,9,11,13,-1,-1,-1,-1,-1,-1,-1,-1],"loss_changes":[2.9885846E-1,1.997689E-1,3.7531248E-1,1.8231718E-1,8.153623E-2,9.709519E-2,9.372339E-3,0E0,0E0,0E0,0E0,0E0,0E0,0E0,0E0],"parents":[2147483647,0,0,1,1,2,2,3,3,4,4,5,5,6,6],"right_children":[2,4,6,8,10,12,14,-1,-1,-1,-1,-1,-1,-1,-1],"split_conditions":[2.9E1,1E0,4.4E1,1E0,1E0,1E0,1E0,1.8853962E-2,-3.925042E-3,-2.2574907E-2,-3.199186E-3,2.6246315E-2,4.1222135E-3,-1.5372346E-2,-3.7326533E-3],"split_indices":[0,7,0,6,28,22,13,0,0,0,0,0,0,0,0],"split_type":[0,0,0,0,0,0,0,0,0,0,0,0,0,0,0],"sum_hessian":[4E1,2.4E1,1.6E1,1.5E1,9E0,1.2E1,4E0,4E0,1.1E1,5E0,4E0,9E0,3E0,2E0,2E0],"tree_param":{"num_deleted":"0","num_feature":"30","num_nodes":"15","size_leaf_vector":"1"}},{"base_weights":[-2.5830336E-2,7.6882176E-2,-9.4641626E-2,2.2055936E-1,-2.1538049E-2,-2.0914903E-1,-4.360092E-3,-2.1194965E-4,2.5802573E-2,6.7763436E-3,-1.0724986E-2,-2.7824616E-2,-7.0583224E-3,1.0291238E-2,-1.4165898E-2],"categories":[],"categories_nodes":[],"categories_segments":[],"categories_sizes":[],"default_left":[0,0,0,0,0,0,0,0,0,0,0,0,0,0,0],"id":81,"left_children":[1,3,5,7,9,11,13,-1,-1,-1,-1,-1,-1,-1,-1],"loss_changes":[2.9705524E-1,2.45143E-1,2.575357E-1,5.8947653E-2,9.146372E-2,8.568001E-2,2.3550433E-1,0E0,0E0,0E0,0E0,0E0,0E0,0E0,0E0],"parents":[2147483647,0,0,1,1,2,2,3,3,4,4,5,5,6,6],"right_children":[2,4,6,8,10,12,14,-1,-1,-1,-1,-1,-1,-1,-1],"split_conditions":[1E0,1E0,1E0,1E0,1E0,1E0,1E0,-2.1194965E-4,2.5802573E-2,6.7763436E-3,-1.0724986E-2,-2.7824616E-2,-7.0583224E-3,1.0291238E-2,-1.4165898E-2],"split_indices":[23,9,13,21,27,29,2,0,0,0,0,0,0,0,0],"split_type":[0,0,0,0,0,0,0,0,0,0,0,0,0,0,0],"sum_hessian":[4E1,1.6E1,2.4E1,6E0,1E1,1E1,1.4E1,1E0,5E0,5E0,5E0,6E0,4E0,8E0,6E0],"tree_param":{"num_deleted":"0","num_feature":"30","num_nodes":"15","size_leaf_vector":"1"}},{"base_weights":[-5.423849E-2,-1.2519646E-1,3.4512658E-2,-2.316954E-1,-2.545147E-2,-3.825569E-2,1.393511E-1,-2.7704505E-2,-1.2186686E-2,-1.8013567E-2,1.3286865E-2,1.5336183E-2,-1.5323468E-2,2.080374E-2,-4.447185E-3],"categories":[],"categories_nodes":[],"categories_segments":[],"categories_sizes":[],"default_left":[0,0,0,0,0,0,0,0,0,0,0,0,0,0,0],"id":82,"left_children":[1,3,5,7,9,11,13,-1,-1,-1,-1,-1,-1,-1,-1],"loss_changes":[2.6252252E-1,2.3842597E-1,1.5028045E-1,2.1024942E-2,3.4229946E-1,2.8788418E-1,1.10260725E-1,0E0,0E0,0E0,0E0,0E0,0E0,0E0,0E0],"parents":[2147483647,0,0,1,1,2,2,3,3,4,4,5,5,6,6],"right_children":[2,4,6,8,10,12,14,-1,-1,-1,-1,-1,-1,-1,-1],"split_conditions":[1E0,1E0,1E0,1E0,1E0,8E0,1E0,-2.7704505E-2,-1.2186686E-2,-1.8013567E-2,1.3286865E-2,1.5336183E-2,-1.5323468E-2,2.080374E-2,-4.447185E-3],"split_indices":[12,26,5,24,18,0,9,0,0,0,0,0,0,0,0],"split_type":[0,0,0,0,0,0,0,0,0,0,0,0,0,0,0],"sum_hessian":[4E1,2.2E1,1.8E1,1E1,1.2E1,1.1E1,7E0,6E0,4E0,6E0,6E0,4E0,7E0,5E0,2E0],"tree_param":{"num_deleted":"0","num_feature":"30","num_nodes":"15","size_leaf_vector":"1"}},{"base_weights":[1.8812494E-2,1.1422822E-1,-6.0827125E-2,1.8830578E-1,-7.765747E-2,-1.455596E-1,6.388105E-2,2.2356344E-2,8.012932E-3,-1.5076463E-2,4.5704576E-3,-2.5532296E-2,-3.1321712E-3,-1.656377E-3,1.8868921E-2],"categories":[],"categories_nodes":[],"categories_segments":[],"categories_sizes":[],"default_left":[0,0,0,0,0,0,0,0,0,0,0,0,0,0,0],"id":83,"left_children":[1,3,5,7,9,11,13,-1,-1,-1,-1,-1,-1,-1,-1],"loss_changes":[3.1850195E-1,2.846974E-1,2.523356E-1,3.5482675E-2,6.1002534E-2,1.6755074E-1,1.035271E-1,0E0,0E0,0E0,0E0,0E0,0E0,0E0,0E0],"parents":[2147483647,0,0,1,1,2,2,3,3,4,4,5,5,6,6],"right_children":[2,4,6,8,10,12,14,-1,-1,-1,-1,-1,-1,-1,-1],"split_conditions":[1E0,1E0,1E0,3.1E1,1E0,1E0,2.4E1,2.2356344E-2,8.012932E-3,-1.5076463E-2,4.5704576E-3,-2.5532296E-2,-3.1321712E-3,-1.656377E-3,1.8868921E-2],"split_indices":[4,20,7,0,29,2,0,0,0,0,0,0,0,0,0],"split_type":[0,0,0,0,0,0,0,0,0,0,0,0,0,0,0],"sum_hessian":[4E1,1.8E1,2.2E1,1.3E1,5E0,1.3E1,9E0,9E0,4E0,3E0,2E0,6E0,7E0,6E0,3E0],"tree_param":{"num_deleted":"0","num_feature":"30","num_nodes":"15","size_leaf_vector":"1"}},{"base_weights":[1.5904337E-2,9.201757E-2,-1.2215977E-1,2.0782776E-1,-1.4485761E-2,-1.4340109E-2,-2.4333367E-1,3.0230438E-2,1.1099182E-2,-1.024511E-2,2.5303168E-2,1.5823765E-2,-1.8404983E-2,-2.7157737E-2,-3.6935732E-3],"categories":[],"categories_nodes":[],"categories_segments":[],"categories_sizes":[],"default_left":[0,0,0,0,0,0,0,0,0,0,0,0,0,0,0],"id":84,"left_children":[1,3,5,7,9,11,13,-1,-1,-1,-1,-1,-1,-1,-1],"loss_changes":[4.4208962E-1,3.3603317E-1,1.9248451E-1,8.53802E-2,3.7890726E-1,2.9271668E-1,3.077516E-2,0E0,0E0,0E0,0E0,0E0,0E0,0E0,0E0],"parents":[2147483647,0,0,1,1,2,2,3,3,4,4,5,5,6,6],"right_children":[2,4,6,8,10,12,14,-1,-1,-1,-1,-1,-1,-1,-1],"split_conditions":[3.3E1,1E0,1E0,1E0,1E0,1E0,4.3E1,3.0230438E-2,1.1099182E-2,-1.024511E-2,2.5303168E-2,1.5823765E-2,-1.8404983E-2,-2.7157737E-2,-3.6935732E-3],"split_indices":[0,1,2,13,16,8,0,0,0,0,0,0,0,0,0],"split_type":[0,0,0,0,0,0,0,0,0,0,0,0,0,0,0],"sum_hessian":[4E1,2.6E1,1.4E1,1.2E1,1.4E1,8E0,6E0,5E0,7E0,1.1E1,3E0,4E0,4E0,5E0,1E0],"tree_param":{"num_deleted":"0","num_feature":"30","num_nodes":"15","size_leaf_vector":"1"}},{"base_weights":[-4.4213716E-2,-1.3198192E-1,1.0117298E-1,1.9670386E-2,-1.5299751E-1,2.1800202E-1,9.275365E-3,-9.951677E-3,-2.3701698E-2,2.5230685E-2,6.0865283E-4,-1.0986316E-2,2.1544894E-2],"categories":[],"categories_nodes":[],"categories_segments":[],"categories_sizes":[],"default_left":[0,0,0,0,0,0,0,0,0,0,0,0,0],"id":85,"left_children":[1,3,5,-1,7,9,11,-1,-1,-1,-1,-1,-1],"loss_changes":[5.365266E-1,2.0969084E-1,1.6975893E-1,0E0,8.8748455E-2,4.9352407E-2,2.69302E-1,0E0,0E0,0E0,0E0,0E0,0E0],"parents":[2147483647,0,0,1,1,2,2,4,4,5,5,6,6],"right_children":[2,4,6,-1,8,10,12,-1,-1,-1,-1,-1,-1],"split_conditions":[1E0,1E0,1E0,1.9670386E-2,1E0,1E0,1E0,-9.951677E-3,-2.3701698E-2,2.5230685E-2,6.0865283E-4,-1.0986316E-2,2.1544894E-2],"split_indices":[8,0,13,0,29,23,19,0,0,0,0,0,0],"split_type":[0,0,0,0,0,0,0,0,0,0,0,0,0],"sum_hessian":[4E1,2.5E1,1.5E1,1E0,2.4E1,6E0,9E0,1.6E1,8E0,5E0,1E0,6E0,3E0],"tree_param":{"num_deleted":"0","num_feature":"30","num_nodes":"13","size_leaf_vector":"1"}},{"base_weights":[7.528457E-3,8.1152186E-2,-1.12580635E-1,2.304725E-1,-2.6577542E-2,-1.7228308E-1,1.5637299E-2,1.3801587E-2,3.138173E-2,1.8274674E-2,-8.894059E-3,-2.2488773E-2,-6.4179967E-3,-1.8635819E-2,9.3308035E-3],"categories":[],"categories_nodes":[],"categories_segments":[],"categories_sizes":[],"default_left":[0,0,0,0,0,0,0,0,0,0,0,0,0,0,0],"id":86,"left_children":[1,3,5,7,9,11,13,-1,-1,-1,-1,-1,-1,-1,-1],"loss_changes":[3.7169424E-1,4.2436755E-1,1.2517282E-1,4.145181E-2,2.2511922E-1,4.8120737E-2,1.1152354E-1,0E0,0E0,0E0,0E0,0E0,0E0,0E0,0E0],"parents":[2147483647,0,0,1,1,2,2,3,3,4,4,5,5,6,6],"right_children":[2,4,6,8,10,12,14,-1,-1,-1,-1,-1,-1,-1,-1],"split_conditions":[1E0,1E0,1E0,1E0,4E0,1E0,1E0,1.3801587E-2,3.138173E-2,1.8274674E-2,-8.894059E-3,-2.2488773E-2,-6.4179967E-3,-1.8635819E-2,9.3308035E-3],"split_indices":[7,17,20,22,0,22,10,0,0,0,0,0,0,0,0],"split_type":[0,0,0,0,0,0,0,0,0,0,0,0,0,0,0],"sum_hessian":[4E1,2.5E1,1.5E1,1E1,1.5E1,1E1,5E0,6E0,4E0,3E0,1.2E1,6E0,4E0,1E0,4E0],"tree_param":{"num_deleted":"0","num_feature":"30","num_nodes":"15","size_leaf_vector":"1"}},{"base_weights":[-1.5547255E-2,1.6212921E-1,-5.063834E-2,4.821606E-2,2.3551008E-2,1.2712718E-2,-1.4657298E-1,-6.122434E-3,1.0510431E-2,1.2948816E-2,-7.809244E-3,-2.746948E-2,-4.4872565E-3],"categories":[],"categories_nodes":[],"categories_segments":[],"categories_sizes":[],"default_left":[0,0,0,0,0,0,0,0,0,0,0,0,0],"id":87,"left_children":[1,3,5,7,-1,9,11,-1,-1,-1,-1,-1,-1],"loss_changes":[2.6383924E-1,4.7157943E-2,2.1457799E-1,3.133843E-2,0E0,2.4339591E-1,1.7009428E-1,0E0,0E0,0E0,0E0,0E0,0E0],"parents":[2147483647,0,0,1,1,2,2,3,3,5,5,6,6],"right_children":[2,4,6,8,-1,10,12,-1,-1,-1,-1,-1,-1],"split_conditions":[6E0,1E0,1E0,3E0,2.3551008E-2,1E0,1E0,-6.122434E-3,1.0510431E-2,1.2948816E-2,-7.809244E-3,-2.746948E-2,-4.4872565E-3],"split_indices":[0,29,2,0,0,27,23,0,0,0,0,0,0],"split_type":[0,0,0,0,0,0,0,0,0,0,0,0,0],"sum_hessian":[4E1,6E0,3.4E1,3E0,3E0,2.1E1,1.3E1,1E0,2E0,9E0,1.2E1,5E0,8E0],"tree_param":{"num_deleted":"0","num_feature":"30","num_nodes":"13","size_leaf_vector":"1"}},{"base_weights":[2.2531785E-2,8.9281306E-2,-5.9456144E-2,1.8751487E-1,-1.6392382E-2,-1.3969384E-1,4.5218386E-2,7.733159E-3,2.3294007E-2,1.1698966E-2,-1.692727E-2,-1.1330153E-3,-2.4477523E-2,-2.8413243E-3,1.0980634E-2],"categories":[],"categories_nodes":[],"categories_segments":[],"categories_sizes":[],"default_left":[0,0,0,0,0,0,0,0,0,0,0,0,0,0,0],"id":88,"left_children":[1,3,5,7,9,11,13,-1,-1,-1,-1,-1,-1,-1,-1],"loss_changes":[2.2968717E-1,2.4183002E-1,1.6589472E-1,4.204756E-2,2.64501E-1,1.4560165E-1,4.5921393E-2,0E0,0E0,0E0,0E0,0E0,0E0,0E0,0E0],"parents":[2147483647,0,0,1,1,2,2,3,3,4,4,5,5,6,6],"right_children":[2,4,6,8,10,12,14,-1,-1,-1,-1,-1,-1,-1,-1],"split_conditions":[1E0,1E0,1E0,1E0,1E0,1E0,1E0,7.733159E-3,2.3294007E-2,1.1698966E-2,-1.692727E-2,-1.1330153E-3,-2.4477523E-2,-2.8413243E-3,1.0980634E-2],"split_indices":[12,27,19,4,3,9,21,0,0,0,0,0,0,0,0],"split_type":[0,0,0,0,0,0,0,0,0,0,0,0,0,0,0],"sum_hessian":[4E1,2.2E1,1.8E1,1.1E1,1.1E1,1E1,8E0,4E0,7E0,6E0,5E0,5E0,5E0,4E0,4E0],"tree_param":{"num_deleted":"0","num_feature":"30","num_nodes":"15","size_leaf_vector":"1"}},{"base_weights":[-5.4741016E-4,-9.22994E-2,9.1230646E-2,-1.7204149E-1,1.2621055E-2,2.0739083E-1,3.7943171E-3,-2.2871166E-2,-7.725272E-3,2.0255495E-2,-1.4776069E-2,2.8072977E-2,-3.286366E-3,-6.9781593E-3,1.3547209E-2],"categories":[],"categories_nodes":[],"categories_segments":[],"categories_sizes":[],"default_left":[0,0,0,0,0,0,0,0,0,0,0,0,0,0,0],"id":89,"left_children":[1,3,5,7,9,11,13,-1,-1,-1,-1,-1,-1,-1,-1],"loss_changes":[3.536741E-1,1.7786945E-1,2.125021E-1,4.6791732E-2,3.3454898E-1,1.6780588E-1,1.3540152E-1,0E0,0E0,0E0,0E0,0E0,0E0,0E0,0E0],"parents":[2147483647,0,0,1,1,2,2,3,3,4,4,5,5,6,6],"right_children":[2,4,6,8,10,12,14,-1,-1,-1,-1,-1,-1,-1,-1],"split_conditions":[1E0,1E0,1E0,1E0,1E0,1E0,1E0,-2.2871166E-2,-7.725272E-3,2.0255495E-2,-1.4776069E-2,2.8072977E-2,-3.286366E-3,-6.9781593E-3,1.3547209E-2],"split_indices":[3,22,17,12,27,7,5,0,0,0,0,0,0,0,0],"split_type":[0,0,0,0,0,0,0,0,0,0,0,0,0,0,0],"sum_hessian":[4E1,2E1,2E1,1.1E1,9E0,8E0,1.2E1,6E0,5E0,4E0,5E0,6E0,2E0,8E0,4E0],"tree_param":{"num_deleted":"0","num_feature":"30","num_nodes":"15","size_leaf_vector":"1"}},{"base_weights":[-3.9467506E-2,4.5325886E-2,-1.0141807E-1,2.0898128E-2,-1.6360031E-2,-1.5690738E-1,2.9173981E-2,-1.09406505E-2,9.231594E-3,-7.4911253E-3,-1.9482244E-2,1.682863E-2,-1.520099E-2],"categories":[],"categories_nodes":[],"categories_segments":[],"categories_sizes":[],"default_left":[0,0,0,0,0,0,0,0,0,0,0,0,0],"id":90,"left_children":[1,3,5,-1,7,9,11,-1,-1,-1,-1,-1,-1],"loss_changes":[2.1996981E-1,1.8513313E-1,1.7849271E-1,0E0,1.5166679E-1,3.8256705E-2,2.2722048E-1,0E0,0E0,0E0,0E0,0E0,0E0],"parents":[2147483647,0,0,1,1,2,2,4,4,5,5,6,6],"right_children":[2,4,6,-1,8,10,12,-1,-1,-1,-1,-1,-1],"split_conditions":[1E0,1E0,1E0,2.0898128E-2,1E0,1E0,1E0,-1.09406505E-2,9.231594E-3,-7.4911253E-3,-1.9482244E-2,1.682863E-2,-1.520099E-2],"split_indices":[6,18,29,0,27,23,19,0,0,0,0,0,0],"split_type":[0,0,0,0,0,0,0,0,0,0,0,0,0],"sum_hessian":[4E1,1.7E1,2.3E1,4E0,1.3E1,1.6E1,7E0,7E0,6E0,6E0,1E1,4E0,3E0],"tree_param":{"num_deleted":"0","num_feature":"30","num_nodes":"13","size_leaf_vector":"1"}},{"base_weights":[-3.9715655E-2,-9.575689E-2,3.0214034E-2,-2.3451753E-2,-2.5767553E-1,7.6539785E-2,-1.14806026E-1,-9.5390575E-3,6.940324E-3,-2.7959062E-2,-6.3092518E-3,-4.260557E-3,1.6070398E-2,-5.15395E-3,-1.3980388E-2],"categories":[],"categories_nodes":[],"categories_segments":[],"categories_sizes":[],"default_left":[0,0,0,0,0,0,0,0,0,0,0,0,0,0,0],"id":91,"left_children":[1,3,5,7,9,11,13,-1,-1,-1,-1,-1,-1,-1,-1],"loss_changes":[1.6356999E-1,2.6323068E-1,1.3643235E-1,1.20178334E-1,1.2210071E-2,1.5726344E-1,7.0220977E-4,0E0,0E0,0E0,0E0,0E0,0E0,0E0,0E0],"parents":[2147483647,0,0,1,1,2,2,3,3,4,4,5,5,6,6],"right_children":[2,4,6,8,10,12,14,-1,-1,-1,-1,-1,-1,-1,-1],"split_conditions":[1E0,1E0,1E0,1E0,4.1E1,1E0,1E0,-9.5390575E-3,6.940324E-3,-2.7959062E-2,-6.3092518E-3,-4.260557E-3,1.6070398E-2,-5.15395E-3,-1.3980388E-2],"split_indices":[27,16,2,1,0,18,6,0,0,0,0,0,0,0,0],"split_type":[0,0,0,0,0,0,0,0,0,0,0,0,0,0,0],"sum_hessian":[4E1,2.2E1,1.8E1,1.6E1,6E0,1.4E1,4E0,9E0,7E0,5E0,1E0,6E0,8E0,2E0,2E0],"tree_param":{"num_deleted":"0","num_feature":"30","num_nodes":"15","size_leaf_vector":"1"}},{"base_weights":[2.642386E-2,-6.542552E-2,1.0115057E-1,-1.5228629E-1,1.1590153E-2,3.205258E-2,2.545099E-2,-2.7306182E-2,-1.0535062E-4,2.2697909E-2,-9.755309E-3,-1.0101522E-2,1.35301575E-2],"categories":[],"categories_nodes":[],"categories_segments":[],"categories_sizes":[],"default_left":[0,0,0,0,0,0,0,0,0,0,0,0,0],"id":92,"left_children":[1,3,5,7,9,11,-1,-1,-1,-1,-1,-1,-1],"loss_changes":[2.880255E-1,1.2886818E-1,2.3556921E-1,1.6409929E-1,2.807332E-1,2.472325E-1,0E0,0E0,0E0,0E0,0E0,0E0,0E0],"parents":[2147483647,0,0,1,1,2,2,3,3,4,4,5,5],"right_children":[2,4,6,8,10,12,-1,-1,-1,-1,-1,-1,-1],"split_conditions":[1E0,1E0,1E0,1E0,1E0,1E0,2.545099E-2,-2.7306182E-2,-1.0535062E-4,2.2697909E-2,-9.755309E-3,-1.0101522E-2,1.35301575E-2],"split_indices":[13,22,22,20,20,2,0,0,0,0,0,0,0],"split_type":[0,0,0,0,0,0,0,0,0,0,0,0,0],"sum_hessian":[4E1,1.8E1,2.2E1,8E0,1E1,1.6E1,6E0,4E0,4E0,3E0,7E0,7E0,9E0],"tree_param":{"num_deleted":"0","num_feature":"30","num_nodes":"13","size_leaf_vector":"1"}},{"base_weights":[-2.773411E-2,-5.7243682E-2,1.2377577E-1,2.1705953E-2,-1.52353E-1,1.725786E-2,1.1791587E-3,1.28942495E-2,-1.5526666E-2,-2.650225E-2,-3.5274238E-3,6.823793E-4,-5.0550554E-4],"categories":[],"categories_nodes":[],"categories_segments":[],"categories_sizes":[],"default_left":[0,0,0,0,0,0,0,0,0,0,0,0,0],"id":93,"left_children":[1,3,5,7,9,-1,11,-1,-1,-1,-1,-1,-1],"loss_changes":[1.9039606E-1,2.6611656E-1,4.1677915E-2,3.9957905E-1,2.0171079E-1,0E0,1.4006422E-4,0E0,0E0,0E0,0E0,0E0,0E0],"parents":[2147483647,0,0,1,1,2,2,3,3,4,4,6,6],"right_children":[2,4,6,8,10,-1,12,-1,-1,-1,-1,-1,-1],"split_conditions":[4.2E1,2.2E1,1E0,1E0,1E0,1.725786E-2,4.6E1,1.28942495E-2,-1.5526666E-2,-2.650225E-2,-3.5274238E-3,6.823793E-4,-5.0550554E-4],"split_indices":[0,0,5,8,18,0,0,0,0,0,0,0,0],"split_type":[0,0,0,0,0,0,0,0,0,0,0,0,0],"sum_hessian":[4E1,3.4E1,6E0,1.9E1,1.5E1,4E0,2E0,1.2E1,7E0,7E0,8E0,1E0,1E0],"tree_param":{"num_deleted":"0","num_feature":"30","num_nodes":"13","size_leaf_vector":"1"}},{"base_weights":[3.7265744E-2,-3.8938385E-2,1.19227E-1,2.0697312E-2,-1.1257096E-1,3.40271E-2,1.5331073E-1,1.3109231E-2,-4.2932946E-3,1.3777432E-2,